SVM-light Version V6.02
2 # kernel type
3 # kernel parameter -d 
0.01 # kernel parameter -g 
1 # kernel parameter -s 
1 # kernel parameter -r 
empty# kernel parameter -u 
192 # highest feature index 
94 # number of training documents 
75 # number of support vectors plus 1 
0.65090681 # threshold b, each following line is a SV (starting with alpha*y)
-1.2761026899608847173794856644236 1:0 2:0 3:0 4:0 5:0 6:0 7:0 8:0 9:0 10:1 11:0 12:0 13:0 14:0 15:0 16:0 17:0 18:0 19:0 20:0 21:0 22:0 23:0 24:1 25:0 26:0 27:0 28:0 29:0 30:0 31:0 32:0 33:0 34:0 35:0 36:0 37:0 38:0 39:0 40:0 41:0 42:0 43:0 44:0 45:0 46:1 47:0 48:0 49:0 50:0 51:0 52:0 53:0 54:0 55:0 56:0 57:0 58:0 59:0 60:0 61:0 62:0 63:1 64:0 65:0 66:0 67:0 68:0 69:0 70:0 71:0 72:0 73:0 74:0 75:0 76:0 77:0 78:0 79:0 80:0 81:0 82:0 83:0 84:0 85:0 86:0 87:0 88:0 89:0 90:1 91:0 92:0 93:0 94:0 95:0 96:0 97:0 98:0 99:0 100:0 101:0 102:0 103:0 104:1 105:0 106:0 107:0 108:0 109:0 110:0 111:0 112:0 113:0 114:0 115:0 116:0 117:0 118:0 119:0 120:0 121:0 122:0 123:1 124:0 125:0 126:0 127:0 128:0 129:0 130:0 131:0 132:0 133:0 134:0 135:0 136:0 137:0 138:0 139:0 140:0 141:0 142:0 143:0 144:0 145:0 146:0 147:0 148:0 149:0 150:1 151:0 152:0 153:0 154:0 155:0 156:0 157:0 158:0 159:0 160:0 161:0.072999999 162:0.055 163:0.055 164:0.052999999 165:0.034000002 166:0.025 167:0.037999999 168:0.028000001 177:0.064000003 178:0.071999997 179:0.086999997 180:0.093999997 181:0.074000001 182:0.028000001 183:0.017000001 184:0.011 #
-1.7110636893715920336944691371173 1:0 2:0 3:0 4:0 5:0 6:0 7:0 8:0 9:1 10:0 11:0 12:0 13:0 14:0 15:0 16:0 17:0 18:0 19:0 20:0 21:0 22:0 23:0 24:1 25:0 26:0 27:0 28:0 29:0 30:0 31:0 32:0 33:0 34:0 35:0 36:0 37:0 38:0 39:0 40:0 41:0 42:0 43:0 44:0 45:0 46:0 47:0 48:0 49:1 50:0 51:0 52:0 53:0 54:0 55:0 56:0 57:0 58:0 59:0 60:0 61:0 62:0 63:1 64:0 65:0 66:0 67:0 68:0 69:0 70:0 71:0 72:0 73:0 74:0 75:0 76:0 77:0 78:0 79:0 80:0 81:0 82:0 83:0 84:0 85:0 86:0 87:0 88:0 89:0 90:0 91:0 92:1 93:0 94:0 95:0 96:0 97:0 98:0 99:0 100:0 101:0 102:0 103:0 104:0 105:0 106:0 107:0 108:0 109:0 110:0 111:0 112:0 113:0 114:0 115:0 116:1 117:0 118:0 119:0 120:0 121:0 122:0 123:0 124:0 125:0 126:0 127:0 128:0 129:0 130:0 131:0 132:0 133:0 134:0 135:1 136:0 137:0 138:0 139:0 140:0 141:0 142:0 143:0 144:0 145:0 146:0 147:0 148:0 149:0 150:0 151:0 152:0 153:0 154:0 155:1 156:0 157:0 158:0 159:0 160:0 161:0.252 162:0.244 163:0.35499999 164:0.31099999 165:0.233 166:0.331 167:0.23100001 168:0.17299999 169:0.54915857 170:0.64446831 171:0.38529673 172:0.47258979 173:0.57401812 174:0.37750384 175:0.5546875 176:0.5859375 177:0.017000001 178:0.0080000004 179:0.0049999999 180:0.0070000002 181:0.0080000004 182:0.0089999996 183:0.0070000002 184:0.0099999998 185:2 186:2 187:2 188:2 189:2 190:2 191:2 192:2 #
-5.0611634847521189684016462706495 1:1 2:0 3:0 4:0 5:0 6:0 7:0 8:0 9:0 10:0 11:0 12:0 13:0 14:0 15:0 16:0 17:0 18:0 19:0 20:0 21:0 22:0 23:0 24:1 25:0 26:0 27:0 28:0 29:0 30:0 31:0 32:0 33:0 34:0 35:0 36:0 37:0 38:0 39:0 40:0 41:0 42:0 43:0 44:0 45:0 46:0 47:1 48:0 49:0 50:0 51:0 52:0 53:0 54:0 55:0 56:0 57:0 58:0 59:0 60:0 61:0 62:0 63:1 64:0 65:0 66:0 67:0 68:0 69:0 70:0 71:0 72:0 73:0 74:0 75:0 76:0 77:0 78:0 79:0 80:0 81:0 82:0 83:0 84:0 85:0 86:0 87:0 88:0 89:0 90:0 91:0 92:0 93:0 94:1 95:0 96:0 97:0 98:0 99:0 100:0 101:0 102:0 103:0 104:0 105:0 106:0 107:0 108:0 109:0 110:1 111:0 112:0 113:0 114:0 115:0 116:0 117:0 118:0 119:0 120:0 121:0 122:0 123:0 124:0 125:0 126:0 127:0 128:0 129:0 130:1 131:0 132:0 133:0 134:0 135:0 136:0 137:0 138:0 139:0 140:0 141:0 142:0 143:0 144:0 145:0 146:0 147:0 148:0 149:0 150:1 151:0 152:0 153:0 154:0 155:0 156:0 157:0 158:0 159:0 160:0 161:0.057 162:0.057 163:0.061999999 164:0.046999998 165:0.059 166:0.059 167:0.052000001 168:0.061999999 177:0.034000002 178:0.028000001 179:0.0060000001 180:0.003 181:0.0040000002 182:0.0049999999 183:0.015 184:0.061999999 #
-10 1:0 2:1 3:0 4:0 5:0 6:0 7:0 8:0 9:0 10:0 11:0 12:0 13:0 14:0 15:0 16:0 17:0 18:0 19:0 20:0 21:0 22:0 23:0 24:0 25:0 26:1 27:0 28:0 29:0 30:0 31:0 32:0 33:0 34:0 35:0 36:0 37:0 38:0 39:0 40:0 41:0 42:0 43:0 44:0 45:0 46:0 47:0 48:0 49:0 50:0 51:0 52:0 53:0 54:0 55:0 56:0 57:1 58:0 59:0 60:0 61:0 62:0 63:1 64:0 65:0 66:0 67:0 68:0 69:0 70:0 71:0 72:0 73:0 74:0 75:0 76:0 77:0 78:0 79:0 80:0 81:0 82:0 83:0 84:1 85:0 86:0 87:0 88:0 89:0 90:0 91:0 92:0 93:0 94:0 95:0 96:0 97:0 98:0 99:0 100:0 101:0 102:0 103:0 104:0 105:0 106:0 107:0 108:0 109:0 110:0 111:0 112:0 113:0 114:0 115:0 116:0 117:0 118:0 119:0 120:1 121:0 122:0 123:0 124:0 125:0 126:1 127:0 128:0 129:0 130:0 131:0 132:0 133:0 134:0 135:0 136:0 137:0 138:0 139:0 140:0 141:0 142:0 143:0 144:0 145:0 146:0 147:0 148:0 149:0 150:0 151:0 152:0 153:0 154:0 155:0 156:0 157:1 158:0 159:0 160:0 161:0.001 162:0 163:0 164:0 165:0.001 166:0.001 167:0.001 168:0.001 177:0.27200001 178:0.73799998 179:0.85900003 180:0.89899999 181:0.89399999 182:0.91100001 183:0.83499998 184:0.34999999 #
-10 1:0 2:0 3:0 4:0 5:0 6:0 7:0 8:0 9:0 10:0 11:1 12:0 13:0 14:0 15:0 16:0 17:0 18:0 19:0 20:0 21:1 22:0 23:0 24:0 25:0 26:0 27:0 28:0 29:0 30:0 31:0 32:0 33:0 34:0 35:0 36:0 37:0 38:0 39:0 40:0 41:0 42:0 43:0 44:0 45:0 46:0 47:0 48:0 49:0 50:0 51:0 52:0 53:0 54:1 55:0 56:0 57:0 58:0 59:0 60:0 61:0 62:0 63:1 64:0 65:0 66:0 67:0 68:0 69:0 70:0 71:0 72:0 73:0 74:0 75:0 76:0 77:0 78:0 79:0 80:0 81:0 82:0 83:0 84:0 85:0 86:0 87:0 88:0 89:0 90:0 91:0 92:0 93:0 94:0 95:0 96:0 97:1 98:0 99:0 100:0 101:0 102:0 103:0 104:0 105:0 106:1 107:0 108:0 109:0 110:0 111:0 112:0 113:0 114:0 115:0 116:0 117:0 118:0 119:0 120:0 121:0 122:0 123:0 124:0 125:0 126:0 127:0 128:1 129:0 130:0 131:0 132:0 133:0 134:0 135:0 136:0 137:0 138:0 139:0 140:0 141:0 142:0 143:0 144:0 145:0 146:0 147:0 148:0 149:0 150:0 151:0 152:0 153:1 154:0 155:0 156:0 157:0 158:0 159:0 160:0 161:0.001 162:0.001 163:0.0020000001 164:0.0020000001 165:0.003 166:0.003 167:0.0040000002 168:0.0020000001 177:0.035999998 178:0.046 179:0.103 180:0.257 181:0.68400002 182:0.91100001 183:0.98100001 184:0.86799997 #
4.5566985652628027025912160752341 1:0 2:0 3:0 4:0 5:0 6:0 7:0 8:0 9:0 10:0 11:0 12:0 13:0 14:0 15:0 16:0 17:0 18:1 19:0 20:0 21:1 22:0 23:0 24:0 25:0 26:0 27:0 28:0 29:0 30:0 31:0 32:0 33:0 34:0 35:0 36:0 37:0 38:0 39:0 40:0 41:0 42:0 43:0 44:0 45:0 46:0 47:0 48:0 49:0 50:0 51:0 52:0 53:1 54:0 55:0 56:0 57:0 58:0 59:0 60:0 61:0 62:0 63:1 64:0 65:0 66:0 67:0 68:0 69:0 70:0 71:0 72:0 73:0 74:0 75:0 76:0 77:0 78:0 79:0 80:0 81:0 82:0 83:0 84:0 85:0 86:0 87:0 88:0 89:0 90:0 91:0 92:0 93:0 94:0 95:1 96:0 97:0 98:0 99:0 100:0 101:0 102:0 103:0 104:0 105:0 106:0 107:0 108:0 109:0 110:1 111:0 112:0 113:0 114:0 115:0 116:0 117:0 118:0 119:0 120:0 121:0 122:0 123:0 124:0 125:0 126:0 127:0 128:0 129:0 130:0 131:0 132:0 133:0 134:0 135:1 136:0 137:0 138:0 139:0 140:0 141:0 142:0 143:0 144:0 145:1 146:0 147:0 148:0 149:0 150:0 151:0 152:0 153:0 154:0 155:0 156:0 157:0 158:0 159:0 160:0 161:0.024 162:0.0099999998 163:0.0099999998 164:0.0070000002 165:0.003 166:0.0020000001 167:0.0020000001 168:0.001 177:0.66299999 178:0.88700002 179:0.75999999 180:0.796 181:0.54799998 182:0.428 183:0.38499999 184:0.50300002 #
10 1:0 2:0 3:0 4:0 5:0 6:0 7:0 8:0 9:0 10:1 11:0 12:0 13:0 14:0 15:0 16:0 17:0 18:0 19:0 20:0 21:0 22:0 23:0 24:0 25:0 26:1 27:0 28:0 29:0 30:0 31:0 32:0 33:0 34:0 35:0 36:0 37:0 38:0 39:0 40:0 41:0 42:0 43:0 44:0 45:0 46:0 47:0 48:0 49:0 50:0 51:0 52:1 53:0 54:0 55:0 56:0 57:0 58:0 59:0 60:0 61:0 62:0 63:1 64:0 65:0 66:0 67:0 68:0 69:0 70:0 71:0 72:0 73:0 74:0 75:0 76:0 77:0 78:0 79:0 80:0 81:0 82:0 83:0 84:0 85:0 86:0 87:0 88:0 89:0 90:0 91:0 92:0 93:0 94:0 95:0 96:1 97:0 98:0 99:0 100:0 101:0 102:0 103:0 104:0 105:0 106:0 107:0 108:0 109:0 110:0 111:0 112:0 113:0 114:0 115:1 116:0 117:0 118:0 119:0 120:0 121:0 122:0 123:1 124:0 125:0 126:0 127:0 128:0 129:0 130:0 131:0 132:0 133:0 134:0 135:0 136:0 137:0 138:0 139:0 140:0 141:0 142:0 143:0 144:0 145:0 146:0 147:0 148:0 149:0 150:0 151:1 152:0 153:0 154:0 155:0 156:0 157:0 158:0 159:0 160:0 161:0.94099998 162:0.949 163:0.935 164:0.95700002 165:0.96499997 166:0.94700003 167:0.96399999 168:0.95899999 169:0.21750389 170:0 171:0 172:0 173:0.023112481 174:0.390625 175:0.81915563 176:0.46705997 177:0.79900002 178:0.81699997 179:0.77200001 180:0.75199997 181:0.69599998 182:0.75099999 183:0.70499998 184:0.62699997 185:1 186:1 187:1 188:1 189:1 190:1 191:1 192:1 #
4.1222942703880276482664157811087 1:0 2:0 3:0 4:0 5:0 6:0 7:0 8:0 9:0 10:0 11:0 12:0 13:0 14:0 15:0 16:0 17:0 18:1 19:0 20:0 21:0 22:0 23:0 24:0 25:0 26:1 27:0 28:0 29:0 30:0 31:0 32:0 33:0 34:0 35:0 36:0 37:0 38:0 39:0 40:0 41:0 42:0 43:0 44:0 45:0 46:0 47:0 48:0 49:0 50:0 51:0 52:0 53:0 54:0 55:0 56:0 57:0 58:1 59:0 60:0 61:0 62:0 63:1 64:0 65:0 66:0 67:0 68:0 69:0 70:0 71:0 72:0 73:0 74:0 75:0 76:0 77:0 78:0 79:0 80:0 81:0 82:0 83:0 84:0 85:0 86:0 87:0 88:0 89:0 90:0 91:0 92:0 93:0 94:0 95:0 96:1 97:0 98:0 99:0 100:0 101:0 102:0 103:0 104:0 105:0 106:0 107:0 108:0 109:0 110:0 111:0 112:0 113:0 114:0 115:0 116:0 117:0 118:1 119:0 120:0 121:0 122:0 123:0 124:1 125:0 126:0 127:0 128:0 129:0 130:0 131:0 132:0 133:0 134:0 135:0 136:0 137:0 138:0 139:0 140:0 141:0 142:0 143:0 144:0 145:0 146:1 147:0 148:0 149:0 150:0 151:0 152:0 153:0 154:0 155:0 156:0 157:0 158:0 159:0 160:0 161:0.011 162:0.017999999 163:0.046 164:0.048 165:0.048 166:0.079000004 167:0.17399999 168:0.155 169:0.0060790274 170:0.13620885 171:0.65045595 172:0.23944549 173:0.030816641 174:0.63829786 175:0.51557463 176:0 177:0.18000001 178:0.72899997 179:0.699 180:0.78299999 181:0.73100001 182:0.75599998 183:0.78500003 184:0.78100002 185:2 186:2 187:2 188:1 189:2 190:2 191:2 192:2 #
10 1:0 2:0 3:0 4:0 5:0 6:0 7:0 8:0 9:0 10:1 11:0 12:0 13:0 14:0 15:0 16:0 17:0 18:0 19:0 20:0 21:0 22:0 23:0 24:1 25:0 26:0 27:0 28:0 29:0 30:0 31:0 32:0 33:0 34:0 35:0 36:0 37:0 38:0 39:0 40:0 41:0 42:0 43:0 44:1 45:0 46:0 47:0 48:0 49:0 50:0 51:0 52:0 53:0 54:0 55:0 56:0 57:0 58:0 59:0 60:0 61:0 62:0 63:1 64:0 65:0 66:0 67:0 68:0 69:0 70:0 71:0 72:0 73:0 74:0 75:0 76:0 77:0 78:0 79:0 80:0 81:1 82:0 83:0 84:0 85:0 86:0 87:0 88:0 89:0 90:0 91:0 92:0 93:0 94:0 95:0 96:0 97:0 98:0 99:0 100:0 101:0 102:0 103:0 104:1 105:0 106:0 107:0 108:0 109:0 110:0 111:0 112:0 113:0 114:0 115:0 116:0 117:0 118:0 119:0 120:0 121:0 122:0 123:0 124:0 125:0 126:0 127:0 128:0 129:0 130:0 131:1 132:0 133:0 134:0 135:0 136:0 137:0 138:0 139:0 140:0 141:0 142:0 143:0 144:0 145:0 146:0 147:0 148:0 149:1 150:0 151:0 152:0 153:0 154:0 155:0 156:0 157:0 158:0 159:0 160:0 161:0.50700003 162:0.44600001 163:0.44299999 164:0.37799999 165:0.396 166:0.31 167:0.28299999 168:0.156 169:0.64733297 170:0.45649838 171:0.1396348 172:0.57340896 173:0.66892463 174:0.81095594 175:0.79154378 176:0.78387952 177:0.67000002 178:0.72000003 179:0.70300001 180:0.75400001 181:0.76999998 182:0.74000001 183:0.66000003 184:0.59799999 185:1 186:1 187:1 188:1 189:1 190:1 191:1 192:1 #
5.7281590992591020494728581979871 1:0 2:0 3:0 4:0 5:0 6:0 7:0 8:1 9:0 10:0 11:0 12:0 13:0 14:0 15:0 16:0 17:0 18:0 19:0 20:0 21:0 22:0 23:0 24:0 25:0 26:0 27:0 28:0 29:0 30:0 31:0 32:0 33:0 34:0 35:0 36:1 37:0 38:0 39:0 40:0 41:1 42:0 43:0 44:0 45:0 46:0 47:0 48:0 49:0 50:0 51:0 52:0 53:0 54:0 55:0 56:0 57:0 58:0 59:0 60:0 61:0 62:0 63:1 64:0 65:0 66:0 67:0 68:0 69:0 70:0 71:0 72:0 73:0 74:0 75:0 76:0 77:0 78:0 79:0 80:0 81:0 82:0 83:0 84:1 85:0 86:0 87:0 88:0 89:0 90:0 91:0 92:0 93:0 94:0 95:0 96:0 97:0 98:0 99:0 100:0 101:0 102:0 103:0 104:0 105:0 106:0 107:0 108:0 109:0 110:0 111:0 112:0 113:0 114:0 115:0 116:0 117:0 118:0 119:1 120:0 121:0 122:0 123:0 124:0 125:0 126:0 127:0 128:0 129:0 130:0 131:0 132:0 133:0 134:0 135:0 136:1 137:0 138:0 139:0 140:0 141:0 142:0 143:0 144:0 145:0 146:0 147:0 148:0 149:0 150:0 151:0 152:0 153:0 154:0 155:1 156:0 157:0 158:0 159:0 160:0 161:0.32499999 162:0.42300001 163:0.352 164:0.46000001 165:0.352 166:0.207 167:0.22499999 168:0.222 177:0.66399997 178:0.72899997 179:0.56 180:0.50999999 181:0.38 182:0.48100001 183:0.57700002 184:0.824 #
-10 1:0 2:0 3:0 4:0 5:0 6:0 7:0 8:0 9:0 10:0 11:0 12:0 13:0 14:0 15:0 16:0 17:0 18:1 19:0 20:0 21:0 22:0 23:1 24:0 25:0 26:0 27:0 28:0 29:0 30:0 31:0 32:0 33:0 34:0 35:0 36:0 37:0 38:0 39:0 40:0 41:0 42:0 43:0 44:0 45:0 46:0 47:0 48:0 49:0 50:0 51:0 52:0 53:0 54:0 55:0 56:1 57:0 58:0 59:0 60:0 61:0 62:0 63:1 64:0 65:0 66:0 67:0 68:0 69:0 70:0 71:0 72:0 73:0 74:0 75:0 76:0 77:0 78:0 79:0 80:0 81:0 82:0 83:0 84:0 85:0 86:0 87:0 88:0 89:0 90:0 91:0 92:0 93:0 94:0 95:0 96:1 97:0 98:0 99:0 100:0 101:0 102:0 103:1 104:0 105:0 106:0 107:0 108:0 109:0 110:0 111:0 112:0 113:0 114:0 115:0 116:0 117:0 118:0 119:0 120:0 121:1 122:0 123:0 124:0 125:0 126:0 127:0 128:0 129:0 130:0 131:0 132:0 133:0 134:0 135:0 136:0 137:0 138:0 139:0 140:0 141:0 142:0 143:0 144:1 145:0 146:0 147:0 148:0 149:0 150:0 151:0 152:0 153:0 154:0 155:0 156:0 157:0 158:0 159:0 160:0 161:0.336 162:0.294 163:0.44499999 164:0.50800002 165:0.60399997 166:0.56599998 167:0.58600003 168:0.67500001 169:0.13981763 170:0.063011974 171:0.43143296 172:0.30875868 173:0.01540832 174:0.26465029 175:0.508044 176:0.81632656 177:0.75700003 178:0.77499998 179:0.88200003 180:0.824 181:0.829 182:0.833 183:0.824 184:0.86699998 185:2 186:2 187:2 188:2 189:2 190:1 191:1 192:1 #
-6.9110424397658274386913035414182 1:0 2:0 3:0 4:0 5:0 6:0 7:0 8:0 9:0 10:0 11:0 12:0 13:0 14:0 15:0 16:1 17:0 18:0 19:0 20:0 21:0 22:0 23:1 24:0 25:0 26:0 27:0 28:0 29:0 30:0 31:0 32:0 33:0 34:0 35:0 36:0 37:0 38:0 39:0 40:0 41:0 42:0 43:0 44:0 45:0 46:0 47:0 48:0 49:0 50:0 51:0 52:0 53:0 54:0 55:0 56:1 57:0 58:0 59:0 60:0 61:0 62:0 63:1 64:0 65:0 66:0 67:0 68:0 69:0 70:0 71:0 72:0 73:0 74:0 75:0 76:0 77:0 78:0 79:0 80:0 81:1 82:0 83:0 84:0 85:0 86:0 87:0 88:0 89:0 90:0 91:0 92:0 93:0 94:0 95:0 96:0 97:0 98:0 99:0 100:0 101:0 102:0 103:0 104:1 105:0 106:0 107:0 108:0 109:0 110:0 111:0 112:0 113:0 114:0 115:0 116:0 117:0 118:0 119:0 120:0 121:0 122:0 123:1 124:0 125:0 126:0 127:0 128:0 129:0 130:0 131:0 132:0 133:0 134:0 135:0 136:0 137:0 138:0 139:0 140:0 141:0 142:0 143:0 144:0 145:0 146:0 147:0 148:0 149:0 150:0 151:0 152:0 153:0 154:0 155:1 156:0 157:0 158:0 159:0 160:0 161:0.44499999 162:0.50800002 163:0.60399997 164:0.56599998 165:0.58600003 166:0.67500001 167:0.59299999 168:0.64200002 169:0.43143296 170:0.30875868 171:0.01540832 172:0.26465029 173:0.508044 174:0.81632656 175:0.91367358 176:0.984375 177:0.88200003 178:0.824 179:0.829 180:0.833 181:0.824 182:0.86699998 183:0.90200001 184:0.94099998 185:2 186:2 187:2 188:1 189:1 190:1 191:1 192:1 #
-5.2244792110091129444526814040728 1:0 2:0 3:0 4:0 5:0 6:0 7:0 8:0 9:0 10:0 11:0 12:0 13:0 14:1 15:0 16:0 17:0 18:0 19:0 20:0 21:0 22:0 23:0 24:0 25:0 26:0 27:0 28:0 29:0 30:0 31:0 32:0 33:1 34:0 35:0 36:0 37:0 38:0 39:0 40:0 41:0 42:0 43:0 44:0 45:0 46:0 47:0 48:1 49:0 50:0 51:0 52:0 53:0 54:0 55:0 56:0 57:0 58:0 59:0 60:0 61:0 62:0 63:1 64:0 65:0 66:0 67:0 68:0 69:0 70:0 71:0 72:0 73:0 74:0 75:0 76:0 77:0 78:0 79:0 80:0 81:0 82:0 83:0 84:0 85:0 86:0 87:0 88:0 89:0 90:0 91:0 92:0 93:1 94:0 95:0 96:0 97:0 98:0 99:0 100:0 101:1 102:0 103:0 104:0 105:0 106:0 107:0 108:0 109:0 110:0 111:0 112:0 113:0 114:0 115:0 116:0 117:0 118:0 119:0 120:0 121:1 122:0 123:0 124:0 125:0 126:0 127:0 128:0 129:0 130:0 131:0 132:0 133:0 134:0 135:0 136:0 137:0 138:0 139:0 140:0 141:0 142:0 143:0 144:0 145:0 146:0 147:0 148:0 149:0 150:0 151:0 152:0 153:0 154:0 155:0 156:0 157:0 158:0 159:1 160:0 161:0.45500001 162:0.34 163:0.33899999 164:0.361 165:0.34400001 166:0.52499998 167:0.31 168:0.249 169:0.92132503 170:0.16348773 171:0.54696131 172:0.28985506 173:0.74931878 174:0.60965282 175:0.40643522 176:0.87119788 177:0.89099997 178:0.93199998 179:0.85299999 180:0.87400001 181:0.79500002 182:0.77499998 183:0.78200001 184:0.79799998 185:1 186:1 187:1 188:1 189:1 190:1 191:1 192:1 #
8.4547462929783812057848990662023 1:0 2:0 3:0 4:0 5:0 6:0 7:0 8:0 9:0 10:0 11:0 12:0 13:0 14:0 15:0 16:0 17:0 18:1 19:0 20:0 21:0 22:0 23:0 24:1 25:0 26:0 27:0 28:0 29:0 30:0 31:0 32:0 33:0 34:0 35:0 36:0 37:0 38:0 39:0 40:0 41:1 42:0 43:0 44:0 45:0 46:0 47:0 48:0 49:0 50:0 51:0 52:0 53:0 54:0 55:0 56:0 57:0 58:0 59:0 60:0 61:0 62:0 63:1 64:0 65:0 66:0 67:0 68:0 69:0 70:0 71:0 72:0 73:0 74:0 75:0 76:0 77:0 78:0 79:0 80:0 81:0 82:0 83:0 84:0 85:0 86:0 87:0 88:1 89:0 90:0 91:0 92:0 93:0 94:0 95:0 96:0 97:0 98:0 99:0 100:0 101:0 102:0 103:0 104:0 105:0 106:1 107:0 108:0 109:0 110:0 111:0 112:0 113:0 114:0 115:0 116:0 117:0 118:0 119:0 120:0 121:0 122:0 123:0 124:0 125:0 126:0 127:0 128:1 129:0 130:0 131:0 132:0 133:0 134:0 135:0 136:0 137:0 138:0 139:0 140:0 141:0 142:0 143:0 144:0 145:0 146:0 147:0 148:0 149:0 150:0 151:0 152:0 153:0 154:1 155:0 156:0 157:0 158:0 159:0 160:0 161:0.071000002 162:0.046999998 163:0.052000001 164:0.109 165:0.082999997 166:0.061000001 167:0.082000002 168:0.093999997 177:0.013 178:0.011 179:0.025 180:0.028999999 181:0.030999999 182:0.037 183:0.101 184:0.20900001 #
10 1:1 2:0 3:0 4:0 5:0 6:0 7:0 8:0 9:0 10:0 11:0 12:0 13:0 14:0 15:0 16:0 17:0 18:0 19:0 20:0 21:0 22:0 23:0 24:1 25:0 26:0 27:0 28:0 29:0 30:0 31:0 32:0 33:0 34:0 35:0 36:0 37:0 38:0 39:0 40:0 41:0 42:0 43:0 44:0 45:0 46:0 47:0 48:1 49:0 50:0 51:0 52:0 53:0 54:0 55:0 56:0 57:0 58:0 59:0 60:0 61:0 62:0 63:1 64:0 65:0 66:0 67:0 68:0 69:0 70:0 71:0 72:0 73:0 74:0 75:0 76:0 77:0 78:0 79:0 80:0 81:1 82:0 83:0 84:0 85:0 86:0 87:0 88:0 89:0 90:0 91:0 92:0 93:0 94:0 95:0 96:0 97:0 98:0 99:0 100:0 101:0 102:0 103:0 104:0 105:0 106:0 107:0 108:0 109:0 110:0 111:0 112:0 113:0 114:0 115:1 116:0 117:0 118:0 119:0 120:0 121:0 122:0 123:0 124:0 125:0 126:0 127:0 128:0 129:0 130:0 131:0 132:1 133:0 134:0 135:0 136:0 137:0 138:0 139:0 140:0 141:0 142:0 143:1 144:0 145:0 146:0 147:0 148:0 149:0 150:0 151:0 152:0 153:0 154:0 155:0 156:0 157:0 158:0 159:0 160:0 161:0.161 162:0.257 163:0.198 164:0.12800001 165:0.198 166:0.15000001 167:0.07 168:0.101 177:0.016000001 178:0.028999999 179:0.022 180:0.035 181:0.086000003 182:0.419 183:0.18000001 184:0.109 #
8.0107414600785382674530410440639 1:0 2:0 3:0 4:0 5:0 6:0 7:0 8:1 9:0 10:0 11:0 12:0 13:0 14:0 15:0 16:0 17:0 18:0 19:0 20:0 21:0 22:0 23:0 24:0 25:0 26:0 27:0 28:0 29:0 30:0 31:0 32:0 33:0 34:0 35:0 36:0 37:0 38:1 39:0 40:0 41:0 42:0 43:0 44:0 45:0 46:0 47:0 48:0 49:0 50:0 51:0 52:0 53:0 54:0 55:0 56:0 57:1 58:0 59:0 60:0 61:0 62:0 63:1 64:0 65:0 66:0 67:0 68:0 69:0 70:0 71:0 72:0 73:0 74:0 75:0 76:0 77:0 78:0 79:0 80:0 81:0 82:0 83:0 84:0 85:0 86:0 87:0 88:0 89:0 90:0 91:0 92:0 93:0 94:0 95:0 96:1 97:0 98:0 99:0 100:0 101:0 102:0 103:0 104:0 105:0 106:0 107:0 108:0 109:0 110:0 111:0 112:0 113:0 114:0 115:0 116:1 117:0 118:0 119:0 120:0 121:0 122:0 123:0 124:0 125:0 126:0 127:0 128:0 129:0 130:0 131:0 132:0 133:0 134:0 135:0 136:1 137:0 138:0 139:0 140:0 141:0 142:0 143:0 144:0 145:0 146:0 147:0 148:0 149:0 150:1 151:0 152:0 153:0 154:0 155:0 156:0 157:0 158:0 159:0 160:0 161:0.16500001 162:0.103 163:0.134 164:0.219 165:0.28999999 166:0.257 167:0.227 168:0.228 177:0.024 178:0.075999998 179:0.191 180:0.31999999 181:0.82999998 182:0.94 183:0.85000002 184:0.79100001 #
-10 1:0 2:0 3:0 4:0 5:0 6:0 7:0 8:0 9:1 10:0 11:0 12:0 13:0 14:0 15:0 16:0 17:0 18:0 19:0 20:0 21:0 22:0 23:0 24:1 25:0 26:0 27:0 28:0 29:0 30:0 31:0 32:0 33:0 34:0 35:0 36:0 37:0 38:0 39:0 40:0 41:1 42:0 43:0 44:0 45:0 46:0 47:0 48:0 49:0 50:0 51:0 52:0 53:0 54:0 55:0 56:0 57:0 58:0 59:0 60:0 61:0 62:0 63:1 64:0 65:0 66:0 67:0 68:0 69:0 70:0 71:0 72:0 73:0 74:0 75:0 76:0 77:0 78:0 79:0 80:0 81:0 82:0 83:0 84:0 85:0 86:0 87:0 88:0 89:0 90:0 91:0 92:0 93:0 94:0 95:0 96:1 97:0 98:0 99:0 100:0 101:0 102:0 103:0 104:0 105:0 106:0 107:0 108:0 109:1 110:0 111:0 112:0 113:0 114:0 115:0 116:0 117:0 118:0 119:0 120:0 121:0 122:0 123:0 124:0 125:0 126:0 127:0 128:0 129:0 130:0 131:0 132:0 133:0 134:0 135:0 136:1 137:0 138:0 139:0 140:0 141:1 142:0 143:0 144:0 145:0 146:0 147:0 148:0 149:0 150:0 151:0 152:0 153:0 154:0 155:0 156:0 157:0 158:0 159:0 160:0 161:0.72000003 162:0.71399999 163:0.667 164:0.67199999 165:0.56999999 166:0.54400003 167:0.59899998 168:0.50400001 177:0.80900002 178:0.85100001 179:0.86000001 180:0.79299998 181:0.68699998 182:0.61299998 183:0.69999999 184:0.419 #
-0.21737335828889037259159522363916 1:0 2:0 3:0 4:0 5:0 6:0 7:0 8:0 9:0 10:0 11:0 12:0 13:0 14:0 15:1 16:0 17:0 18:0 19:0 20:0 21:0 22:0 23:0 24:0 25:0 26:0 27:0 28:0 29:0 30:1 31:0 32:0 33:0 34:0 35:0 36:0 37:0 38:0 39:0 40:0 41:0 42:0 43:0 44:0 45:1 46:0 47:0 48:0 49:0 50:0 51:0 52:0 53:0 54:0 55:0 56:0 57:0 58:0 59:0 60:0 61:0 62:0 63:1 64:0 65:0 66:0 67:0 68:0 69:0 70:0 71:0 72:0 73:0 74:0 75:0 76:0 77:0 78:0 79:0 80:0 81:0 82:0 83:0 84:0 85:0 86:0 87:0 88:0 89:0 90:0 91:0 92:0 93:0 94:0 95:1 96:0 97:0 98:0 99:0 100:0 101:0 102:0 103:0 104:0 105:0 106:0 107:0 108:0 109:0 110:1 111:0 112:0 113:0 114:0 115:0 116:0 117:0 118:0 119:0 120:0 121:0 122:0 123:0 124:0 125:0 126:0 127:0 128:0 129:1 130:0 131:0 132:0 133:0 134:0 135:0 136:0 137:0 138:0 139:0 140:0 141:0 142:0 143:0 144:0 145:0 146:0 147:0 148:0 149:0 150:1 151:0 152:0 153:0 154:0 155:0 156:0 157:0 158:0 159:0 160:0 161:0.039000001 162:0.028000001 163:0.032000002 164:0.017999999 165:0.028000001 166:0.037 167:0.061999999 168:0.090000004 177:0.119 178:0.113 179:0.115 180:0.107 181:0.121 182:0.162 183:0.243 184:0.498 #
-1.7131322396085053583192348014563 1:0 2:0 3:0 4:1 5:0 6:0 7:0 8:0 9:0 10:0 11:0 12:0 13:0 14:0 15:0 16:0 17:0 18:0 19:0 20:0 21:0 22:0 23:0 24:0 25:1 26:0 27:0 28:0 29:0 30:0 31:0 32:0 33:0 34:0 35:0 36:0 37:0 38:0 39:0 40:0 41:0 42:0 43:0 44:0 45:0 46:0 47:0 48:0 49:0 50:0 51:0 52:0 53:0 54:0 55:0 56:0 57:1 58:0 59:0 60:0 61:0 62:0 63:1 64:0 65:0 66:0 67:0 68:0 69:0 70:0 71:0 72:0 73:0 74:0 75:0 76:0 77:0 78:0 79:0 80:0 81:0 82:0 83:0 84:0 85:0 86:0 87:0 88:0 89:0 90:0 91:0 92:0 93:0 94:0 95:0 96:1 97:0 98:0 99:0 100:0 101:0 102:0 103:0 104:0 105:0 106:0 107:0 108:0 109:0 110:1 111:0 112:0 113:0 114:0 115:0 116:0 117:0 118:0 119:0 120:0 121:0 122:0 123:0 124:0 125:0 126:0 127:0 128:1 129:0 130:0 131:0 132:0 133:0 134:0 135:0 136:0 137:0 138:0 139:0 140:0 141:0 142:0 143:0 144:0 145:0 146:0 147:0 148:0 149:0 150:0 151:0 152:0 153:0 154:0 155:0 156:1 157:0 158:0 159:0 160:0 161:0.028000001 162:0.014 163:0.021 164:0.017999999 165:0.0080000004 166:0.0060000001 167:0.0049999999 168:0.003 177:0.917 178:0.89099997 179:0.78100002 180:0.021 181:0.0089999996 182:0.0070000002 183:0.003 184:0.003 #
10 1:0 2:0 3:0 4:0 5:0 6:0 7:0 8:0 9:0 10:0 11:1 12:0 13:0 14:0 15:0 16:0 17:0 18:0 19:0 20:0 21:0 22:0 23:1 24:0 25:0 26:0 27:0 28:0 29:0 30:0 31:0 32:0 33:0 34:0 35:0 36:0 37:0 38:0 39:0 40:0 41:0 42:0 43:0 44:0 45:0 46:0 47:0 48:0 49:0 50:0 51:0 52:0 53:0 54:1 55:0 56:0 57:0 58:0 59:0 60:0 61:0 62:0 63:1 64:0 65:0 66:0 67:0 68:0 69:0 70:0 71:0 72:0 73:0 74:0 75:0 76:0 77:0 78:0 79:0 80:0 81:0 82:0 83:0 84:0 85:0 86:0 87:1 88:0 89:0 90:0 91:0 92:0 93:0 94:0 95:0 96:0 97:0 98:0 99:0 100:0 101:0 102:0 103:0 104:0 105:0 106:0 107:0 108:0 109:0 110:0 111:0 112:0 113:0 114:0 115:0 116:1 117:0 118:0 119:0 120:0 121:0 122:0 123:0 124:0 125:0 126:0 127:0 128:0 129:0 130:0 131:0 132:0 133:0 134:0 135:0 136:1 137:0 138:0 139:0 140:0 141:0 142:0 143:0 144:0 145:0 146:0 147:0 148:0 149:0 150:0 151:0 152:0 153:0 154:0 155:0 156:1 157:0 158:0 159:0 160:0 161:0.76300001 162:0.736 163:0.70300001 164:0.75 165:0.676 166:0.66299999 167:0.69300002 168:0.77999997 169:0.51622421 170:0.37177065 171:0.010351967 172:0.18903592 173:0.68641973 174:0.53158706 175:0.2696456 176:0.70878273 177:0.80800003 178:0.81 179:0.82599998 180:0.89600003 181:0.91299999 182:0.93199998 183:0.86299998 184:0.76200002 185:2 186:2 187:2 188:2 189:2 190:2 191:2 192:1 #
7.5632486524312474429621033777948 1:0 2:0 3:0 4:0 5:0 6:0 7:0 8:1 9:0 10:0 11:0 12:0 13:0 14:0 15:0 16:0 17:0 18:0 19:0 20:0 21:0 22:0 23:0 24:1 25:0 26:0 27:0 28:0 29:0 30:0 31:0 32:0 33:0 34:0 35:0 36:0 37:0 38:0 39:0 40:0 41:0 42:0 43:0 44:0 45:0 46:0 47:0 48:0 49:0 50:0 51:0 52:0 53:1 54:0 55:0 56:0 57:0 58:0 59:0 60:0 61:0 62:0 63:1 64:0 65:0 66:0 67:0 68:0 69:0 70:0 71:0 72:0 73:0 74:0 75:0 76:0 77:0 78:0 79:0 80:0 81:0 82:0 83:0 84:0 85:0 86:0 87:0 88:0 89:0 90:0 91:0 92:0 93:0 94:0 95:0 96:0 97:1 98:0 99:0 100:0 101:0 102:0 103:1 104:0 105:0 106:0 107:0 108:0 109:0 110:0 111:0 112:0 113:0 114:0 115:0 116:0 117:0 118:0 119:0 120:0 121:1 122:0 123:0 124:0 125:0 126:0 127:0 128:0 129:0 130:0 131:0 132:0 133:0 134:0 135:0 136:0 137:0 138:0 139:0 140:0 141:0 142:0 143:0 144:0 145:0 146:0 147:0 148:0 149:0 150:0 151:0 152:0 153:1 154:0 155:0 156:0 157:0 158:0 159:0 160:0 161:0.22499999 162:0.24600001 163:0.28 164:0.433 165:0.34099999 166:0.301 167:0.308 168:0.292 169:0 170:0.021482278 171:0.14986376 172:0.52299935 173:0.3147541 174:0.80025202 175:0.16934802 176:0.29972753 177:0.704 178:0.801 179:0.86199999 180:0.86299998 181:0.80500001 182:0.78200001 183:0.764 184:0.53600001 185:2 186:2 187:2 188:2 189:2 190:1 191:1 192:2 #
-10 1:0 2:0 3:0 4:0 5:0 6:0 7:0 8:0 9:0 10:1 11:0 12:0 13:0 14:0 15:0 16:0 17:0 18:0 19:0 20:0 21:0 22:0 23:0 24:0 25:0 26:1 27:0 28:0 29:0 30:0 31:0 32:0 33:0 34:0 35:0 36:0 37:0 38:0 39:0 40:0 41:0 42:0 43:0 44:0 45:0 46:0 47:0 48:0 49:1 50:0 51:0 52:0 53:0 54:0 55:0 56:0 57:0 58:0 59:0 60:0 61:0 62:0 63:1 64:0 65:0 66:0 67:0 68:0 69:0 70:0 71:0 72:0 73:0 74:0 75:0 76:0 77:0 78:0 79:0 80:0 81:0 82:0 83:0 84:1 85:0 86:0 87:0 88:0 89:0 90:0 91:0 92:0 93:0 94:0 95:0 96:0 97:0 98:0 99:0 100:0 101:0 102:0 103:1 104:0 105:0 106:0 107:0 108:0 109:0 110:0 111:0 112:0 113:0 114:0 115:0 116:0 117:0 118:0 119:0 120:0 121:0 122:0 123:0 124:1 125:0 126:0 127:0 128:0 129:0 130:0 131:0 132:0 133:0 134:0 135:0 136:0 137:0 138:0 139:0 140:0 141:0 142:0 143:0 144:0 145:0 146:0 147:0 148:0 149:0 150:0 151:0 152:1 153:0 154:0 155:0 156:0 157:0 158:0 159:0 160:0 161:0.46700001 162:0.396 163:0.49000001 164:0.54400003 165:0.52600002 166:0.55800003 167:0.58399999 168:0.55500001 169:0.0051786639 170:0.22701475 171:0.50487155 172:0.11342155 173:0.39742213 174:0.6805293 175:0.39205155 176:0.084592149 177:0.66299999 178:0.91399997 179:0.91500002 180:0.80400002 181:0.66600001 182:0.676 183:0.36500001 184:0.31299999 185:2 186:2 187:2 188:2 189:2 190:2 191:2 192:2 #
-6.0877847381042951013796482584439 1:0 2:0 3:0 4:0 5:0 6:0 7:0 8:0 9:0 10:0 11:0 12:0 13:0 14:0 15:0 16:0 17:1 18:0 19:0 20:0 21:0 22:0 23:0 24:0 25:0 26:0 27:0 28:0 29:0 30:0 31:0 32:0 33:0 34:1 35:0 36:0 37:0 38:0 39:0 40:0 41:0 42:0 43:0 44:0 45:0 46:0 47:0 48:0 49:0 50:0 51:0 52:0 53:0 54:0 55:0 56:0 57:1 58:0 59:0 60:0 61:0 62:0 63:1 64:0 65:0 66:0 67:0 68:0 69:0 70:0 71:0 72:0 73:0 74:0 75:0 76:0 77:0 78:0 79:0 80:0 81:1 82:0 83:0 84:0 85:0 86:0 87:0 88:0 89:0 90:0 91:0 92:0 93:0 94:0 95:0 96:0 97:0 98:0 99:0 100:0 101:0 102:0 103:0 104:0 105:0 106:0 107:0 108:0 109:0 110:0 111:0 112:0 113:0 114:0 115:0 116:0 117:1 118:0 119:0 120:0 121:0 122:0 123:0 124:0 125:0 126:0 127:0 128:0 129:0 130:0 131:0 132:0 133:0 134:0 135:0 136:1 137:0 138:0 139:0 140:0 141:0 142:0 143:0 144:0 145:1 146:0 147:0 148:0 149:0 150:0 151:0 152:0 153:0 154:0 155:0 156:0 157:0 158:0 159:0 160:0 161:0.243 162:0.26499999 163:0.162 164:0.138 165:0.24600001 166:0.222 167:0.090999998 168:0.19599999 169:0.26229507 170:0.077639751 171:0.10491803 172:0.54190296 173:0.30482641 174:0.026229508 175:0.33127889 176:0.69120288 177:0.55199999 178:0.28099999 179:0.433 180:0.70700002 181:0.133 182:0.086000003 183:0.090000004 184:0.037999999 185:2 186:2 187:2 188:2 189:2 190:2 191:2 192:2 #
-2.9596672199424509663856497354573 1:0 2:0 3:0 4:0 5:0 6:0 7:0 8:0 9:0 10:0 11:0 12:0 13:0 14:0 15:0 16:0 17:0 18:0 19:1 20:0 21:0 22:0 23:0 24:0 25:0 26:0 27:0 28:0 29:0 30:0 31:0 32:0 33:0 34:0 35:0 36:0 37:0 38:1 39:0 40:0 41:0 42:0 43:0 44:0 45:0 46:0 47:0 48:0 49:0 50:1 51:0 52:0 53:0 54:0 55:0 56:0 57:0 58:0 59:0 60:0 61:0 62:0 63:1 64:0 65:0 66:0 67:0 68:0 69:0 70:0 71:0 72:0 73:0 74:0 75:0 76:0 77:0 78:0 79:0 80:0 81:0 82:0 83:0 84:0 85:0 86:0 87:0 88:0 89:1 90:0 91:0 92:0 93:0 94:0 95:0 96:0 97:0 98:0 99:0 100:0 101:0 102:0 103:0 104:0 105:0 106:0 107:0 108:0 109:0 110:1 111:0 112:0 113:0 114:0 115:0 116:0 117:0 118:0 119:0 120:0 121:0 122:0 123:0 124:0 125:0 126:0 127:0 128:0 129:1 130:0 131:0 132:0 133:0 134:0 135:0 136:0 137:0 138:0 139:0 140:0 141:1 142:0 143:0 144:0 145:0 146:0 147:0 148:0 149:0 150:0 151:0 152:0 153:0 154:0 155:0 156:0 157:0 158:0 159:0 160:0 161:0.0020000001 162:0.001 163:0.001 164:0.0020000001 165:0.003 166:0.0060000001 167:0.0060000001 168:0.0089999996 169:0.18024784 170:0 171:0.10357328 172:0.54190296 173:0.21257751 174:0.025893319 175:0.48715678 176:0.21168502 177:0.025 178:0.044 179:0.101 180:0.15700001 181:0.153 182:0.15099999 183:0.164 184:0.15099999 185:2 186:2 187:2 188:2 189:2 190:2 191:2 192:2 #
10 1:0 2:0 3:0 4:0 5:0 6:1 7:0 8:0 9:0 10:0 11:0 12:0 13:0 14:0 15:0 16:0 17:0 18:0 19:0 20:0 21:0 22:0 23:0 24:0 25:0 26:0 27:0 28:0 29:0 30:0 31:0 32:0 33:0 34:0 35:1 36:0 37:0 38:0 39:0 40:0 41:0 42:0 43:0 44:0 45:0 46:1 47:0 48:0 49:0 50:0 51:0 52:0 53:0 54:0 55:0 56:0 57:0 58:0 59:0 60:0 61:0 62:0 63:1 64:0 65:0 66:0 67:0 68:0 69:0 70:0 71:0 72:0 73:0 74:0 75:0 76:0 77:0 78:0 79:0 80:0 81:0 82:0 83:0 84:0 85:0 86:0 87:0 88:0 89:0 90:0 91:0 92:0 93:0 94:0 95:0 96:1 97:0 98:0 99:0 100:0 101:0 102:0 103:0 104:0 105:0 106:0 107:0 108:0 109:0 110:0 111:0 112:0 113:1 114:0 115:0 116:0 117:0 118:0 119:0 120:0 121:1 122:0 123:0 124:0 125:0 126:0 127:0 128:0 129:0 130:0 131:0 132:0 133:0 134:0 135:0 136:0 137:0 138:0 139:0 140:0 141:0 142:0 143:0 144:0 145:0 146:0 147:0 148:0 149:0 150:0 151:0 152:0 153:0 154:0 155:0 156:1 157:0 158:0 159:0 160:0 161:0.015 162:0.045000002 163:0.15099999 164:0.12 165:0.25799999 166:0.207 167:0.186 168:0.111 177:0.84200001 178:0.91799998 179:0.94099998 180:0.93000001 181:0.92500001 182:0.90700001 183:0.84500003 184:0.81999999 #
10 1:0 2:0 3:0 4:0 5:0 6:0 7:0 8:0 9:0 10:0 11:0 12:0 13:0 14:0 15:0 16:0 17:0 18:1 19:0 20:0 21:0 22:0 23:1 24:0 25:0 26:0 27:0 28:0 29:0 30:0 31:0 32:0 33:0 34:0 35:0 36:0 37:0 38:0 39:0 40:0 41:0 42:0 43:0 44:0 45:0 46:0 47:0 48:0 49:0 50:0 51:0 52:0 53:0 54:0 55:0 56:1 57:0 58:0 59:0 60:0 61:0 62:0 63:1 64:0 65:0 66:0 67:0 68:0 69:0 70:0 71:0 72:0 73:0 74:0 75:0 76:0 77:0 78:0 79:0 80:0 81:0 82:0 83:0 84:1 85:0 86:0 87:0 88:0 89:0 90:0 91:0 92:0 93:0 94:0 95:0 96:0 97:0 98:0 99:0 100:0 101:0 102:0 103:0 104:1 105:0 106:0 107:0 108:0 109:0 110:0 111:0 112:0 113:0 114:0 115:0 116:0 117:0 118:0 119:0 120:0 121:0 122:0 123:0 124:1 125:0 126:0 127:0 128:0 129:0 130:0 131:0 132:0 133:0 134:0 135:0 136:0 137:0 138:0 139:0 140:0 141:0 142:0 143:0 144:1 145:0 146:0 147:0 148:0 149:0 150:0 151:0 152:0 153:0 154:0 155:0 156:0 157:0 158:0 159:0 160:0 161:0.29100001 162:0.26899999 163:0.25 164:0.25799999 165:0.23100001 166:0.168 167:0.211 168:0.163 177:0.736 178:0.91900003 179:0.926 180:0.84299999 181:0.78299999 182:0.84899998 183:0.77999997 184:0.86199999 #
8.9413769155342741612457757582888 1:0 2:0 3:0 4:0 5:0 6:0 7:0 8:1 9:0 10:0 11:0 12:0 13:0 14:0 15:0 16:0 17:0 18:0 19:0 20:0 21:0 22:0 23:1 24:0 25:0 26:0 27:0 28:0 29:0 30:0 31:0 32:0 33:0 34:0 35:0 36:0 37:0 38:0 39:0 40:0 41:0 42:0 43:0 44:1 45:0 46:0 47:0 48:0 49:0 50:0 51:0 52:0 53:0 54:0 55:0 56:0 57:0 58:0 59:0 60:0 61:0 62:0 63:1 64:0 65:0 66:0 67:0 68:0 69:0 70:0 71:0 72:0 73:0 74:0 75:0 76:0 77:0 78:0 79:0 80:0 81:0 82:0 83:0 84:1 85:0 86:0 87:0 88:0 89:0 90:0 91:0 92:0 93:0 94:0 95:0 96:0 97:0 98:0 99:0 100:0 101:0 102:0 103:0 104:0 105:0 106:0 107:0 108:0 109:0 110:0 111:0 112:0 113:0 114:0 115:0 116:0 117:0 118:1 119:0 120:0 121:1 122:0 123:0 124:0 125:0 126:0 127:0 128:0 129:0 130:0 131:0 132:0 133:0 134:0 135:0 136:0 137:0 138:0 139:0 140:0 141:1 142:0 143:0 144:0 145:0 146:0 147:0 148:0 149:0 150:0 151:0 152:0 153:0 154:0 155:0 156:0 157:0 158:0 159:0 160:0 161:0.083999999 162:0.068999998 163:0.048999999 164:0.071999997 165:0.068999998 166:0.063000001 167:0.083999999 168:0.112 177:0.94599998 178:0.94199997 179:0.79400003 180:0.82599998 181:0.78399998 182:0.80699998 183:0.80299997 184:0.78100002 #
5.3229375495433366438646771712229 1:0 2:0 3:0 4:0 5:0 6:0 7:0 8:0 9:0 10:0 11:0 12:0 13:0 14:0 15:0 16:0 17:0 18:1 19:0 20:0 21:0 22:1 23:0 24:0 25:0 26:0 27:0 28:0 29:0 30:0 31:0 32:0 33:0 34:0 35:0 36:0 37:0 38:0 39:0 40:0 41:0 42:0 43:0 44:0 45:0 46:0 47:0 48:0 49:0 50:0 51:0 52:0 53:0 54:0 55:0 56:0 57:1 58:0 59:0 60:0 61:0 62:0 63:1 64:0 65:0 66:0 67:0 68:0 69:0 70:0 71:0 72:0 73:0 74:0 75:0 76:0 77:0 78:0 79:0 80:0 81:0 82:0 83:0 84:0 85:0 86:0 87:0 88:0 89:1 90:0 91:0 92:0 93:0 94:0 95:0 96:0 97:0 98:0 99:0 100:0 101:0 102:0 103:0 104:0 105:0 106:0 107:0 108:0 109:0 110:0 111:0 112:0 113:1 114:0 115:0 116:0 117:0 118:0 119:0 120:0 121:0 122:0 123:0 124:0 125:0 126:0 127:0 128:0 129:0 130:0 131:0 132:0 133:0 134:0 135:0 136:0 137:1 138:0 139:0 140:0 141:0 142:0 143:0 144:0 145:0 146:0 147:0 148:0 149:0 150:0 151:0 152:0 153:0 154:0 155:0 156:0 157:1 158:0 159:0 160:0 161:0.47 162:0.551 163:0.51700002 164:0.63499999 165:0.70899999 166:0.66600001 167:0.81800002 168:0.78200001 169:0.072948329 170:0.095824778 171:0.026229508 172:0.012602394 173:0.031000886 174:0.006811989 175:0.013114754 176:0.11147541 177:0.61400002 178:0.64899999 179:0.70499998 180:0.74400002 181:0.81999999 182:0.824 183:0.727 184:0.81999999 185:3 186:3 187:3 188:3 189:1 190:3 191:3 192:1 #
-10 1:0 2:0 3:0 4:0 5:0 6:0 7:0 8:0 9:0 10:0 11:0 12:0 13:0 14:0 15:0 16:0 17:0 18:1 19:0 20:0 21:0 22:0 23:0 24:1 25:0 26:0 27:0 28:0 29:0 30:0 31:0 32:0 33:0 34:0 35:0 36:0 37:0 38:0 39:0 40:0 41:0 42:0 43:0 44:1 45:0 46:0 47:0 48:0 49:0 50:0 51:0 52:0 53:0 54:0 55:0 56:0 57:0 58:0 59:0 60:0 61:0 62:0 63:1 64:0 65:0 66:0 67:0 68:0 69:0 70:0 71:0 72:0 73:0 74:0 75:0 76:0 77:0 78:0 79:0 80:0 81:0 82:0 83:0 84:0 85:0 86:0 87:0 88:0 89:0 90:0 91:0 92:0 93:0 94:0 95:0 96:1 97:0 98:0 99:0 100:0 101:0 102:0 103:0 104:1 105:0 106:0 107:0 108:0 109:0 110:0 111:0 112:0 113:0 114:0 115:0 116:0 117:0 118:0 119:0 120:0 121:0 122:0 123:1 124:0 125:0 126:0 127:0 128:0 129:0 130:0 131:0 132:0 133:0 134:0 135:0 136:0 137:0 138:0 139:0 140:0 141:0 142:0 143:0 144:1 145:0 146:0 147:0 148:0 149:0 150:0 151:0 152:0 153:0 154:0 155:0 156:0 157:0 158:0 159:0 160:0 161:0.27399999 162:0.36199999 163:0.44600001 164:0.51099998 165:0.597 166:0.68300003 167:0.72500002 168:0.74199998 177:0.57599998 178:0.62300003 179:0.66399997 180:0.75599998 181:0.88499999 182:0.72000003 183:0.38600001 184:0.37400001 #
3.1523212116589629516738568781875 1:0 2:0 3:0 4:0 5:0 6:0 7:0 8:0 9:0 10:0 11:0 12:0 13:0 14:0 15:0 16:0 17:0 18:1 19:0 20:0 21:0 22:0 23:0 24:0 25:0 26:1 27:0 28:0 29:0 30:0 31:0 32:0 33:0 34:0 35:0 36:0 37:0 38:0 39:0 40:0 41:0 42:0 43:0 44:0 45:0 46:0 47:0 48:0 49:0 50:0 51:0 52:0 53:1 54:0 55:0 56:0 57:0 58:0 59:0 60:0 61:0 62:0 63:1 64:0 65:0 66:0 67:0 68:0 69:0 70:0 71:0 72:0 73:0 74:0 75:0 76:0 77:0 78:0 79:0 80:0 81:0 82:0 83:0 84:0 85:1 86:0 87:0 88:0 89:0 90:0 91:0 92:0 93:0 94:0 95:0 96:0 97:0 98:0 99:0 100:0 101:0 102:0 103:0 104:0 105:0 106:1 107:0 108:0 109:0 110:0 111:0 112:0 113:0 114:0 115:0 116:0 117:0 118:0 119:0 120:0 121:0 122:0 123:0 124:0 125:0 126:0 127:0 128:0 129:1 130:0 131:0 132:0 133:0 134:0 135:0 136:0 137:0 138:0 139:0 140:0 141:0 142:0 143:0 144:0 145:0 146:0 147:0 148:0 149:1 150:0 151:0 152:0 153:0 154:0 155:0 156:0 157:0 158:0 159:0 160:0 161:0.62599999 162:0.58099997 163:0.46700001 164:0.361 165:0.37099999 166:0.26899999 167:0.31799999 168:0.22400001 177:0.87 178:0.95700002 179:0.94300002 180:0.83600003 181:0.45500001 182:0.51999998 183:0.42899999 184:0.38699999 #
-6.9225625422385821394755112123676 1:0 2:0 3:1 4:0 5:0 6:0 7:0 8:0 9:0 10:0 11:0 12:0 13:0 14:0 15:0 16:0 17:0 18:0 19:0 20:0 21:0 22:0 23:1 24:0 25:0 26:0 27:0 28:0 29:0 30:0 31:0 32:0 33:0 34:0 35:0 36:0 37:0 38:0 39:0 40:0 41:0 42:0 43:0 44:1 45:0 46:0 47:0 48:0 49:0 50:0 51:0 52:0 53:0 54:0 55:0 56:0 57:0 58:0 59:0 60:0 61:0 62:0 63:1 64:0 65:0 66:0 67:0 68:0 69:0 70:0 71:0 72:0 73:0 74:0 75:0 76:0 77:0 78:0 79:0 80:0 81:0 82:0 83:1 84:0 85:0 86:0 87:0 88:0 89:0 90:0 91:0 92:0 93:0 94:0 95:0 96:0 97:0 98:0 99:0 100:0 101:0 102:0 103:0 104:1 105:0 106:0 107:0 108:0 109:0 110:0 111:0 112:0 113:0 114:0 115:0 116:0 117:0 118:0 119:0 120:0 121:0 122:0 123:1 124:0 125:0 126:0 127:0 128:0 129:0 130:0 131:0 132:0 133:0 134:0 135:0 136:0 137:0 138:0 139:0 140:0 141:0 142:0 143:1 144:0 145:0 146:0 147:0 148:0 149:0 150:0 151:0 152:0 153:0 154:0 155:0 156:0 157:0 158:0 159:0 160:0 161:0.81900001 162:0.70599997 163:0.73299998 164:0.78100002 165:0.58999997 166:0.477 167:0.454 168:0.377 177:0.64899999 178:0.61500001 179:0.745 180:0.78100002 181:0.84299999 182:0.85500002 183:0.84799999 184:0.815 #
10 1:0 2:0 3:0 4:0 5:0 6:0 7:0 8:0 9:0 10:0 11:0 12:0 13:1 14:0 15:0 16:0 17:0 18:0 19:0 20:0 21:0 22:0 23:0 24:0 25:0 26:0 27:0 28:0 29:0 30:0 31:0 32:0 33:0 34:0 35:0 36:1 37:0 38:0 39:0 40:0 41:0 42:0 43:0 44:0 45:0 46:0 47:0 48:0 49:0 50:0 51:0 52:0 53:0 54:0 55:0 56:1 57:0 58:0 59:0 60:0 61:0 62:0 63:1 64:0 65:0 66:0 67:0 68:0 69:0 70:0 71:0 72:0 73:0 74:0 75:0 76:0 77:0 78:0 79:0 80:0 81:0 82:0 83:0 84:0 85:0 86:0 87:0 88:0 89:0 90:0 91:0 92:1 93:0 94:0 95:0 96:0 97:0 98:0 99:0 100:0 101:0 102:0 103:0 104:0 105:0 106:0 107:0 108:0 109:0 110:1 111:0 112:0 113:0 114:0 115:0 116:0 117:0 118:0 119:0 120:0 121:0 122:0 123:0 124:0 125:0 126:0 127:0 128:0 129:0 130:0 131:0 132:0 133:0 134:1 135:0 136:0 137:0 138:0 139:0 140:0 141:0 142:0 143:0 144:0 145:0 146:0 147:0 148:0 149:0 150:0 151:0 152:0 153:0 154:0 155:0 156:0 157:0 158:1 159:0 160:0 161:0.43099999 162:0.32800001 163:0.537 164:0.61799997 165:0.62 166:0.68900001 167:0.65200001 168:0.671 169:0.10217984 170:0.023112481 171:0.05392912 172:0.012602394 173:0.018126888 174:0.082858622 175:0.0931677 176:0.15805471 177:0.79799998 178:0.75400001 179:0.67000002 180:0.65399998 181:0.60799998 182:0.588 183:0.57800001 184:0.78200001 185:2 186:2 187:2 188:2 189:2 190:2 191:2 192:2 #
10 1:0 2:0 3:0 4:0 5:0 6:0 7:0 8:0 9:0 10:0 11:0 12:0 13:0 14:0 15:0 16:0 17:0 18:1 19:0 20:0 21:0 22:0 23:1 24:0 25:0 26:0 27:0 28:0 29:0 30:0 31:0 32:0 33:0 34:0 35:0 36:0 37:0 38:0 39:0 40:0 41:0 42:0 43:0 44:0 45:0 46:0 47:0 48:0 49:0 50:0 51:0 52:0 53:0 54:1 55:0 56:0 57:0 58:0 59:0 60:0 61:0 62:0 63:1 64:0 65:0 66:0 67:0 68:0 69:0 70:0 71:0 72:0 73:0 74:0 75:0 76:0 77:0 78:0 79:0 80:0 81:0 82:0 83:0 84:0 85:0 86:1 87:0 88:0 89:0 90:0 91:0 92:0 93:0 94:0 95:0 96:0 97:0 98:0 99:0 100:0 101:0 102:0 103:1 104:0 105:0 106:0 107:0 108:0 109:0 110:0 111:0 112:0 113:0 114:0 115:0 116:0 117:0 118:0 119:0 120:0 121:0 122:0 123:0 124:0 125:0 126:0 127:0 128:0 129:0 130:0 131:0 132:0 133:1 134:0 135:0 136:0 137:0 138:0 139:0 140:0 141:0 142:0 143:0 144:0 145:0 146:0 147:0 148:0 149:0 150:0 151:0 152:0 153:0 154:0 155:0 156:1 157:0 158:0 159:0 160:0 161:0.18000001 162:0.164 163:0.138 164:0.113 165:0.20100001 166:0.18799999 167:0.118 168:0.13500001 169:0.66869301 170:0.74984246 171:0.60559005 172:0.66792691 173:0.4540295 174:0.63642091 175:0.4359673 176:0.50847459 177:0.67000002 178:0.52999997 179:0.73400003 180:0.84399998 181:0.91000003 182:0.86000001 183:0.671 184:0.47999999 185:2 186:2 187:2 188:2 189:2 190:2 191:2 192:2 #
-5.0701210753809045073126071656588 1:0 2:0 3:0 4:0 5:0 6:0 7:0 8:0 9:0 10:0 11:0 12:0 13:0 14:0 15:0 16:0 17:0 18:0 19:0 20:1 21:0 22:0 23:0 24:1 25:0 26:0 27:0 28:0 29:0 30:0 31:0 32:0 33:0 34:0 35:0 36:0 37:0 38:0 39:0 40:0 41:0 42:0 43:0 44:0 45:0 46:0 47:0 48:0 49:0 50:0 51:0 52:0 53:0 54:0 55:1 56:0 57:0 58:0 59:0 60:0 61:0 62:0 63:1 64:0 65:0 66:0 67:0 68:0 69:0 70:0 71:0 72:0 73:0 74:0 75:0 76:0 77:0 78:0 79:0 80:0 81:0 82:0 83:0 84:0 85:0 86:0 87:0 88:0 89:0 90:0 91:0 92:0 93:0 94:0 95:0 96:1 97:0 98:0 99:0 100:0 101:0 102:0 103:0 104:0 105:0 106:0 107:0 108:0 109:0 110:0 111:0 112:0 113:0 114:0 115:0 116:1 117:0 118:0 119:0 120:0 121:0 122:0 123:0 124:0 125:0 126:0 127:0 128:0 129:0 130:1 131:0 132:0 133:0 134:0 135:0 136:0 137:0 138:0 139:0 140:0 141:0 142:0 143:0 144:0 145:0 146:0 147:0 148:0 149:0 150:0 151:0 152:0 153:0 154:0 155:0 156:0 157:1 158:0 159:0 160:0 161:0.50400001 162:0.48500001 163:0.34799999 164:0.289 165:0.25400001 166:0.17 167:0.093999997 168:0.090000004 169:0.66300678 170:0.069817401 171:0.578125 172:0.23944549 173:0.40832049 174:0.30816641 175:0.031071983 176:0.23606557 177:0.73299998 178:0.64399999 179:0.667 180:0.815 181:0.76800001 182:0.72399998 183:0.37 184:0.15099999 185:3 186:3 187:1 188:2 189:2 190:2 191:3 192:1 #
-10 1:0 2:0 3:0 4:0 5:0 6:1 7:0 8:0 9:0 10:0 11:0 12:0 13:0 14:0 15:0 16:0 17:0 18:0 19:0 20:0 21:0 22:0 23:1 24:0 25:0 26:0 27:0 28:0 29:0 30:0 31:0 32:0 33:0 34:0 35:0 36:0 37:0 38:0 39:0 40:0 41:0 42:0 43:0 44:0 45:0 46:1 47:0 48:0 49:0 50:0 51:0 52:0 53:0 54:0 55:0 56:0 57:0 58:0 59:0 60:0 61:0 62:0 63:1 64:0 65:0 66:0 67:0 68:0 69:0 70:0 71:0 72:0 73:0 74:0 75:0 76:0 77:0 78:0 79:0 80:0 81:1 82:0 83:0 84:0 85:0 86:0 87:0 88:0 89:0 90:0 91:0 92:0 93:0 94:0 95:0 96:0 97:0 98:0 99:0 100:0 101:0 102:0 103:1 104:0 105:0 106:0 107:0 108:0 109:0 110:0 111:0 112:0 113:0 114:0 115:0 116:0 117:0 118:0 119:0 120:0 121:1 122:0 123:0 124:0 125:0 126:0 127:0 128:0 129:0 130:0 131:0 132:0 133:0 134:0 135:0 136:0 137:0 138:0 139:0 140:0 141:0 142:0 143:1 144:0 145:0 146:0 147:0 148:0 149:0 150:0 151:0 152:0 153:0 154:0 155:0 156:0 157:0 158:0 159:0 160:0 161:0.433 162:0.34599999 163:0.36899999 164:0.329 165:0.32699999 166:0.391 167:0.36700001 168:0.38999999 169:0.27241769 170:0.54190296 171:0.022701476 172:0.30875868 173:0.44877222 174:0.44738501 175:0.033869602 176:0.44108382 177:0.83999997 178:0.79900002 179:0.75700003 180:0.75 181:0.833 182:0.85000002 183:0.84200001 184:0.79900002 185:2 186:2 187:2 188:2 189:2 190:2 191:2 192:2 #
-5.5790864440531748869034345261753 1:0 2:0 3:0 4:0 5:0 6:0 7:0 8:0 9:0 10:0 11:1 12:0 13:0 14:0 15:0 16:0 17:0 18:0 19:0 20:0 21:0 22:0 23:0 24:0 25:0 26:0 27:0 28:0 29:0 30:0 31:0 32:0 33:0 34:0 35:0 36:1 37:0 38:0 39:0 40:0 41:1 42:0 43:0 44:0 45:0 46:0 47:0 48:0 49:0 50:0 51:0 52:0 53:0 54:0 55:0 56:0 57:0 58:0 59:0 60:0 61:0 62:0 63:1 64:0 65:0 66:0 67:0 68:0 69:0 70:0 71:0 72:0 73:0 74:0 75:0 76:0 77:0 78:0 79:0 80:0 81:0 82:0 83:1 84:0 85:0 86:0 87:0 88:0 89:0 90:0 91:0 92:0 93:0 94:0 95:0 96:0 97:0 98:0 99:0 100:0 101:0 102:0 103:0 104:0 105:0 106:0 107:0 108:0 109:0 110:1 111:0 112:0 113:0 114:0 115:0 116:0 117:0 118:0 119:0 120:0 121:0 122:0 123:0 124:0 125:0 126:0 127:0 128:0 129:0 130:0 131:0 132:1 133:0 134:0 135:0 136:0 137:0 138:0 139:0 140:0 141:0 142:0 143:1 144:0 145:0 146:0 147:0 148:0 149:0 150:0 151:0 152:0 153:0 154:0 155:0 156:0 157:0 158:0 159:0 160:0 161:0.574 162:0.51999998 163:0.498 164:0.34999999 165:0.213 166:0.2 167:0.175 168:0.149 169:0.40806293 170:0.13097073 171:0.40643522 172:0.19533712 173:0.33396345 174:0.20714656 175:0.30211481 176:0.44738501 177:0.801 178:0.829 179:0.51300001 180:0.53600001 181:0.51499999 182:0.73199999 183:0.85699999 184:0.93599999 185:2 186:2 187:2 188:2 189:2 190:2 191:1 192:1 #
10 1:0 2:0 3:0 4:0 5:0 6:0 7:0 8:0 9:0 10:1 11:0 12:0 13:0 14:0 15:0 16:0 17:0 18:0 19:0 20:0 21:1 22:0 23:0 24:0 25:0 26:0 27:0 28:0 29:0 30:0 31:0 32:0 33:0 34:0 35:0 36:0 37:0 38:0 39:0 40:0 41:1 42:0 43:0 44:0 45:0 46:0 47:0 48:0 49:0 50:0 51:0 52:0 53:0 54:0 55:0 56:0 57:0 58:0 59:0 60:0 61:0 62:0 63:1 64:0 65:0 66:0 67:0 68:0 69:0 70:0 71:0 72:0 73:0 74:0 75:0 76:0 77:0 78:0 79:0 80:0 81:0 82:0 83:0 84:1 85:0 86:0 87:0 88:0 89:0 90:0 91:0 92:0 93:0 94:0 95:0 96:0 97:0 98:0 99:0 100:0 101:0 102:0 103:1 104:0 105:0 106:0 107:0 108:0 109:0 110:0 111:0 112:0 113:0 114:0 115:0 116:0 117:0 118:0 119:0 120:0 121:0 122:0 123:1 124:0 125:0 126:0 127:0 128:0 129:0 130:0 131:0 132:0 133:0 134:0 135:0 136:0 137:0 138:0 139:0 140:0 141:0 142:0 143:1 144:0 145:0 146:0 147:0 148:0 149:0 150:0 151:0 152:0 153:0 154:0 155:0 156:0 157:0 158:0 159:0 160:0 161:0.28600001 162:0.249 163:0.39399999 164:0.30700001 165:0.21600001 166:0.25299999 167:0.24699999 168:0.26899999 177:0.177 178:0.237 179:0.40900001 180:0.37900001 181:0.53899997 182:0.69499999 183:0.75999999 184:0.76499999 #
7.3479371249293068402153039642144 1:0 2:0 3:0 4:0 5:0 6:0 7:0 8:1 9:0 10:0 11:0 12:0 13:0 14:0 15:0 16:0 17:0 18:0 19:0 20:0 21:0 22:0 23:0 24:0 25:0 26:0 27:0 28:0 29:0 30:0 31:0 32:1 33:0 34:0 35:0 36:0 37:0 38:0 39:0 40:0 41:0 42:0 43:0 44:0 45:0 46:0 47:0 48:0 49:0 50:0 51:0 52:0 53:1 54:0 55:0 56:0 57:0 58:0 59:0 60:0 61:0 62:0 63:1 64:0 65:0 66:0 67:0 68:0 69:0 70:0 71:0 72:0 73:0 74:0 75:0 76:0 77:0 78:0 79:0 80:0 81:0 82:0 83:0 84:1 85:0 86:0 87:0 88:0 89:0 90:0 91:0 92:0 93:0 94:0 95:0 96:0 97:0 98:0 99:0 100:0 101:1 102:0 103:0 104:0 105:0 106:0 107:0 108:0 109:0 110:0 111:0 112:0 113:0 114:0 115:0 116:0 117:0 118:0 119:0 120:0 121:0 122:0 123:0 124:0 125:0 126:0 127:0 128:0 129:0 130:0 131:0 132:0 133:0 134:0 135:0 136:0 137:0 138:1 139:0 140:0 141:1 142:0 143:0 144:0 145:0 146:0 147:0 148:0 149:0 150:0 151:0 152:0 153:0 154:0 155:0 156:0 157:0 158:0 159:0 160:0 161:0.037999999 162:0.039000001 163:0.018999999 164:0.016000001 165:0.0080000004 166:0.0070000002 167:0.0060000001 168:0.0040000002 177:0.84799999 178:0.92699999 179:0.55299997 180:0.35800001 181:0.122 182:0.104 183:0.118 184:0.096000001 #
3.2936017393219980675667102332227 1:0 2:0 3:1 4:0 5:0 6:0 7:0 8:0 9:0 10:0 11:0 12:0 13:0 14:0 15:0 16:0 17:0 18:0 19:0 20:0 21:0 22:0 23:0 24:1 25:0 26:0 27:0 28:0 29:0 30:0 31:0 32:0 33:0 34:0 35:0 36:0 37:0 38:0 39:0 40:0 41:0 42:0 43:0 44:0 45:0 46:0 47:0 48:0 49:0 50:0 51:0 52:0 53:0 54:0 55:0 56:0 57:1 58:0 59:0 60:0 61:0 62:0 63:1 64:0 65:0 66:0 67:0 68:0 69:0 70:0 71:0 72:0 73:0 74:0 75:0 76:0 77:0 78:0 79:0 80:0 81:0 82:0 83:0 84:0 85:0 86:0 87:0 88:0 89:0 90:0 91:0 92:0 93:0 94:0 95:0 96:1 97:0 98:0 99:0 100:0 101:0 102:0 103:0 104:0 105:0 106:1 107:0 108:0 109:0 110:0 111:0 112:0 113:0 114:0 115:0 116:0 117:0 118:0 119:0 120:0 121:1 122:0 123:0 124:0 125:0 126:0 127:0 128:0 129:0 130:0 131:0 132:0 133:0 134:0 135:0 136:0 137:0 138:0 139:0 140:0 141:0 142:0 143:0 144:0 145:0 146:1 147:0 148:0 149:0 150:0 151:0 152:0 153:0 154:0 155:0 156:0 157:0 158:0 159:0 160:0 161:0.18000001 162:0.28 163:0.13600001 164:0.16500001 165:0.167 166:0.093999997 167:0.14300001 168:0.089000002 177:0.68599999 178:0.77499998 179:0.74299997 180:0.81 181:0.88999999 182:0.917 183:0.94099998 184:0.94700003 #
-7.8961203981705363474929981748573 1:0 2:0 3:0 4:0 5:0 6:0 7:0 8:0 9:0 10:0 11:0 12:0 13:1 14:0 15:0 16:0 17:0 18:0 19:0 20:0 21:0 22:0 23:0 24:0 25:0 26:0 27:0 28:0 29:1 30:0 31:0 32:0 33:0 34:0 35:0 36:0 37:0 38:0 39:0 40:0 41:0 42:0 43:0 44:0 45:0 46:0 47:0 48:0 49:0 50:0 51:0 52:0 53:0 54:0 55:0 56:0 57:0 58:1 59:0 60:0 61:0 62:0 63:1 64:0 65:0 66:0 67:0 68:0 69:0 70:0 71:0 72:0 73:0 74:0 75:0 76:0 77:0 78:0 79:0 80:0 81:0 82:0 83:0 84:0 85:0 86:0 87:0 88:0 89:0 90:0 91:0 92:0 93:0 94:0 95:0 96:0 97:0 98:0 99:0 100:1 101:0 102:0 103:0 104:0 105:0 106:0 107:0 108:0 109:0 110:0 111:0 112:0 113:0 114:1 115:0 116:0 117:0 118:0 119:0 120:0 121:0 122:0 123:0 124:0 125:0 126:0 127:0 128:0 129:0 130:0 131:0 132:0 133:0 134:1 135:0 136:0 137:0 138:0 139:0 140:0 141:0 142:0 143:0 144:0 145:0 146:0 147:0 148:0 149:0 150:0 151:0 152:0 153:0 154:0 155:0 156:0 157:0 158:1 159:0 160:0 161:0.46700001 162:0.26199999 163:0.086999997 164:0.107 165:0.056000002 166:0.035999998 167:0.022 168:0.012 177:0.85900003 178:0.79400003 179:0.64999998 180:0.484 181:0.19499999 182:0.19499999 183:0.131 184:0.119 #
-10 1:0 2:0 3:0 4:1 5:0 6:0 7:0 8:0 9:0 10:0 11:0 12:0 13:0 14:0 15:0 16:0 17:0 18:0 19:0 20:0 21:0 22:0 23:0 24:0 25:0 26:1 27:0 28:0 29:0 30:0 31:0 32:0 33:0 34:0 35:0 36:0 37:0 38:0 39:0 40:0 41:0 42:0 43:0 44:0 45:0 46:0 47:0 48:0 49:0 50:0 51:0 52:0 53:0 54:1 55:0 56:0 57:0 58:0 59:0 60:0 61:0 62:0 63:1 64:0 65:0 66:0 67:0 68:0 69:0 70:0 71:0 72:0 73:0 74:0 75:0 76:0 77:0 78:0 79:0 80:0 81:0 82:0 83:0 84:0 85:0 86:0 87:0 88:0 89:0 90:0 91:0 92:0 93:0 94:0 95:0 96:1 97:0 98:0 99:0 100:0 101:1 102:0 103:0 104:0 105:0 106:0 107:0 108:0 109:0 110:0 111:0 112:0 113:0 114:0 115:0 116:0 117:0 118:0 119:0 120:0 121:0 122:0 123:0 124:0 125:1 126:0 127:0 128:0 129:0 130:0 131:0 132:0 133:0 134:0 135:0 136:0 137:0 138:0 139:0 140:0 141:0 142:0 143:0 144:0 145:0 146:0 147:0 148:0 149:0 150:0 151:0 152:0 153:0 154:0 155:0 156:1 157:0 158:0 159:0 160:0 161:0.032000002 162:0.046999998 163:0.048999999 164:0.093999997 165:0.085000001 166:0.035999998 167:0.017000001 168:0.0060000001 177:0.89899999 178:0.86699998 179:0.82700002 180:0.81599998 181:0.796 182:0.71899998 183:0.86900002 184:0.96600002 #
-7.7736113965085156252143860911019 1:0 2:0 3:0 4:1 5:0 6:0 7:0 8:0 9:0 10:0 11:0 12:0 13:0 14:0 15:0 16:0 17:0 18:0 19:0 20:0 21:0 22:0 23:1 24:0 25:0 26:0 27:0 28:0 29:0 30:0 31:0 32:0 33:0 34:0 35:0 36:0 37:0 38:0 39:0 40:0 41:0 42:0 43:0 44:1 45:0 46:0 47:0 48:0 49:0 50:0 51:0 52:0 53:0 54:0 55:0 56:0 57:0 58:0 59:0 60:0 61:0 62:0 63:1 64:0 65:0 66:0 67:0 68:0 69:0 70:0 71:0 72:0 73:0 74:0 75:0 76:0 77:0 78:0 79:0 80:0 81:0 82:0 83:0 84:1 85:0 86:0 87:0 88:0 89:0 90:0 91:0 92:0 93:0 94:0 95:0 96:0 97:0 98:0 99:0 100:0 101:0 102:0 103:1 104:0 105:0 106:0 107:0 108:0 109:0 110:0 111:0 112:0 113:0 114:0 115:0 116:0 117:0 118:0 119:0 120:0 121:0 122:0 123:0 124:1 125:0 126:0 127:0 128:0 129:0 130:0 131:0 132:0 133:0 134:0 135:0 136:0 137:0 138:0 139:0 140:0 141:0 142:0 143:0 144:0 145:0 146:0 147:0 148:1 149:0 150:0 151:0 152:0 153:0 154:0 155:0 156:0 157:0 158:0 159:0 160:0 161:0.60299999 162:0.449 163:0.273 164:0.36399999 165:0.28799999 166:0.19599999 167:0.133 168:0.13 177:0.66900003 178:0.62900001 179:0.59500003 180:0.58499998 181:0.53200001 182:0.57800001 183:0.64300001 184:0.73699999 #
-5.8728755516094004462956945644692 1:0 2:0 3:1 4:0 5:0 6:0 7:0 8:0 9:0 10:0 11:0 12:0 13:0 14:0 15:0 16:0 17:0 18:0 19:0 20:0 21:0 22:0 23:0 24:0 25:0 26:0 27:0 28:0 29:1 30:0 31:0 32:0 33:0 34:0 35:0 36:0 37:0 38:0 39:0 40:0 41:0 42:0 43:1 44:0 45:0 46:0 47:0 48:0 49:0 50:0 51:0 52:0 53:0 54:0 55:0 56:0 57:0 58:0 59:0 60:0 61:0 62:0 63:1 64:0 65:0 66:0 67:0 68:0 69:0 70:0 71:0 72:0 73:0 74:0 75:0 76:0 77:0 78:0 79:0 80:0 81:0 82:0 83:0 84:0 85:0 86:0 87:0 88:0 89:0 90:0 91:0 92:0 93:0 94:0 95:1 96:0 97:0 98:0 99:0 100:0 101:0 102:0 103:0 104:0 105:0 106:0 107:0 108:0 109:0 110:0 111:0 112:0 113:0 114:0 115:1 116:0 117:0 118:0 119:0 120:0 121:0 122:0 123:0 124:0 125:0 126:0 127:0 128:0 129:0 130:1 131:0 132:0 133:0 134:0 135:0 136:0 137:0 138:0 139:0 140:0 141:0 142:0 143:0 144:0 145:0 146:0 147:0 148:0 149:0 150:1 151:0 152:0 153:0 154:0 155:0 156:0 157:0 158:0 159:0 160:0 161:0.082000002 162:0.101 163:0.122 164:0.103 165:0.1 166:0.1 167:0.123 168:0.131 169:0.24574669 170:0.6554473 171:0.031505987 172:0.15752994 173:0.50390625 174:0.61328125 175:0.7457276 176:0.2019679 177:0.81 178:0.82099998 179:0.80599999 180:0.39199999 181:0.119 182:0.15899999 183:0.175 184:0.45699999 185:1 186:1 187:1 188:2 189:2 190:2 191:2 192:1 #
10 1:0 2:0 3:0 4:0 5:0 6:0 7:0 8:0 9:0 10:1 11:0 12:0 13:0 14:0 15:0 16:0 17:0 18:0 19:0 20:0 21:0 22:0 23:0 24:1 25:0 26:0 27:0 28:0 29:0 30:0 31:0 32:0 33:0 34:0 35:0 36:0 37:0 38:0 39:0 40:0 41:0 42:0 43:0 44:0 45:0 46:0 47:0 48:1 49:0 50:0 51:0 52:0 53:0 54:0 55:0 56:0 57:0 58:0 59:0 60:0 61:0 62:0 63:1 64:0 65:0 66:0 67:0 68:0 69:0 70:0 71:0 72:0 73:0 74:0 75:0 76:0 77:0 78:0 79:0 80:0 81:0 82:0 83:0 84:0 85:0 86:0 87:0 88:0 89:0 90:0 91:0 92:0 93:0 94:0 95:0 96:0 97:0 98:0 99:0 100:1 101:0 102:0 103:0 104:0 105:0 106:1 107:0 108:0 109:0 110:0 111:0 112:0 113:0 114:0 115:0 116:0 117:0 118:0 119:0 120:0 121:0 122:0 123:0 124:0 125:0 126:0 127:0 128:0 129:0 130:0 131:0 132:0 133:0 134:1 135:0 136:0 137:0 138:0 139:0 140:0 141:0 142:0 143:1 144:0 145:0 146:0 147:0 148:0 149:0 150:0 151:0 152:0 153:0 154:0 155:0 156:0 157:0 158:0 159:0 160:0 161:0.0040000002 162:0.0040000002 163:0.0040000002 164:0.012 165:0.029999999 166:0.033 167:0.063000001 168:0.14399999 177:0.244 178:0.206 179:0.192 180:0.30199999 181:0.53299999 182:0.66399997 183:0.61199999 184:0.54500002 #
-9.9709722473591178015794866951182 1:0 2:0 3:0 4:0 5:0 6:0 7:0 8:0 9:0 10:0 11:0 12:0 13:0 14:0 15:0 16:0 17:1 18:0 19:0 20:0 21:0 22:0 23:0 24:0 25:0 26:0 27:0 28:0 29:0 30:0 31:0 32:0 33:0 34:0 35:0 36:1 37:0 38:0 39:0 40:0 41:0 42:0 43:0 44:0 45:0 46:0 47:0 48:0 49:1 50:0 51:0 52:0 53:0 54:0 55:0 56:0 57:0 58:0 59:0 60:0 61:0 62:0 63:1 64:0 65:0 66:0 67:0 68:0 69:0 70:0 71:0 72:0 73:0 74:0 75:0 76:0 77:0 78:0 79:0 80:0 81:0 82:0 83:0 84:0 85:0 86:0 87:0 88:0 89:0 90:0 91:0 92:0 93:1 94:0 95:0 96:0 97:0 98:0 99:0 100:0 101:0 102:0 103:0 104:0 105:0 106:0 107:0 108:0 109:0 110:0 111:0 112:0 113:0 114:0 115:0 116:0 117:0 118:1 119:0 120:0 121:0 122:0 123:0 124:0 125:0 126:0 127:0 128:0 129:0 130:0 131:0 132:0 133:0 134:0 135:0 136:0 137:0 138:1 139:0 140:0 141:0 142:0 143:0 144:0 145:0 146:0 147:0 148:0 149:1 150:0 151:0 152:0 153:0 154:0 155:0 156:0 157:0 158:0 159:0 160:0 161:0.954 162:0.95999998 163:0.94999999 164:0.95700002 165:0.94400001 166:0.949 167:0.921 168:0.92900002 177:0.86799997 178:0.884 179:0.78500003 180:0.80800003 181:0.77399999 182:0.65100002 183:0.73199999 184:0.75 #
-8.9191001009167223401163937523961 1:0 2:0 3:0 4:0 5:0 6:0 7:0 8:0 9:0 10:1 11:0 12:0 13:0 14:0 15:0 16:0 17:0 18:0 19:0 20:0 21:0 22:0 23:1 24:0 25:0 26:0 27:0 28:0 29:0 30:0 31:0 32:0 33:0 34:0 35:0 36:0 37:0 38:0 39:0 40:0 41:1 42:0 43:0 44:0 45:0 46:0 47:0 48:0 49:0 50:0 51:0 52:0 53:0 54:0 55:0 56:0 57:0 58:0 59:0 60:0 61:0 62:0 63:1 64:0 65:0 66:0 67:0 68:0 69:0 70:0 71:0 72:0 73:0 74:0 75:0 76:0 77:0 78:0 79:0 80:0 81:0 82:0 83:0 84:0 85:1 86:0 87:0 88:0 89:0 90:0 91:0 92:0 93:0 94:0 95:0 96:0 97:0 98:0 99:0 100:0 101:0 102:0 103:0 104:0 105:0 106:0 107:0 108:0 109:0 110:0 111:0 112:0 113:0 114:0 115:1 116:0 117:0 118:0 119:0 120:0 121:0 122:0 123:0 124:0 125:0 126:0 127:0 128:0 129:1 130:0 131:0 132:0 133:0 134:0 135:0 136:0 137:0 138:0 139:0 140:0 141:0 142:0 143:0 144:0 145:0 146:0 147:0 148:0 149:0 150:1 151:0 152:0 153:0 154:0 155:0 156:0 157:0 158:0 159:0 160:0 161:0.161 162:0.241 163:0.27200001 164:0.26300001 165:0.296 166:0.28600001 167:0.39700001 168:0.37400001 177:0.44 178:0.50999999 179:0.41600001 180:0.745 181:0.51499999 182:0.83600003 183:0.34900001 184:0.27399999 #
-10 1:0 2:0 3:0 4:0 5:0 6:0 7:0 8:0 9:0 10:0 11:0 12:0 13:0 14:0 15:0 16:0 17:0 18:1 19:0 20:0 21:0 22:0 23:0 24:0 25:1 26:0 27:0 28:0 29:0 30:0 31:0 32:0 33:0 34:0 35:0 36:0 37:0 38:0 39:0 40:0 41:0 42:0 43:0 44:0 45:0 46:1 47:0 48:0 49:0 50:0 51:0 52:0 53:0 54:0 55:0 56:0 57:0 58:0 59:0 60:0 61:0 62:0 63:1 64:0 65:0 66:0 67:0 68:0 69:0 70:0 71:0 72:0 73:0 74:0 75:0 76:0 77:0 78:0 79:0 80:0 81:0 82:0 83:0 84:0 85:0 86:0 87:0 88:0 89:0 90:0 91:1 92:0 93:0 94:0 95:0 96:0 97:0 98:0 99:0 100:0 101:1 102:0 103:0 104:0 105:0 106:0 107:0 108:0 109:0 110:0 111:0 112:0 113:0 114:0 115:0 116:0 117:0 118:0 119:0 120:0 121:0 122:0 123:0 124:0 125:0 126:0 127:0 128:0 129:0 130:0 131:0 132:0 133:0 134:1 135:0 136:0 137:0 138:0 139:0 140:0 141:0 142:0 143:1 144:0 145:0 146:0 147:0 148:0 149:0 150:0 151:0 152:0 153:0 154:0 155:0 156:0 157:0 158:0 159:0 160:0 161:0.003 162:0.0049999999 163:0.003 164:0.003 165:0.001 166:0.001 167:0.0020000001 168:0.0020000001 177:0.064000003 178:0.108 179:0.112 180:0.039999999 181:0.035999998 182:0.046 183:0.103 184:0.257 #
4.5682449263368312131206039339304 1:0 2:0 3:0 4:0 5:0 6:0 7:0 8:0 9:0 10:0 11:0 12:0 13:0 14:0 15:0 16:0 17:0 18:1 19:0 20:0 21:1 22:0 23:0 24:0 25:0 26:0 27:0 28:0 29:0 30:0 31:0 32:0 33:0 34:0 35:0 36:0 37:0 38:0 39:0 40:0 41:0 42:0 43:0 44:0 45:0 46:0 47:0 48:0 49:0 50:0 51:0 52:0 53:0 54:0 55:0 56:0 57:1 58:0 59:0 60:0 61:0 62:0 63:1 64:0 65:0 66:0 67:0 68:0 69:0 70:0 71:0 72:0 73:0 74:0 75:0 76:0 77:0 78:0 79:0 80:0 81:1 82:0 83:0 84:0 85:0 86:0 87:0 88:0 89:0 90:0 91:0 92:0 93:0 94:0 95:0 96:0 97:0 98:0 99:0 100:0 101:0 102:0 103:0 104:0 105:0 106:0 107:0 108:0 109:0 110:1 111:0 112:0 113:0 114:0 115:0 116:0 117:0 118:0 119:0 120:0 121:0 122:0 123:0 124:0 125:0 126:0 127:0 128:0 129:1 130:0 131:0 132:0 133:0 134:0 135:0 136:0 137:0 138:0 139:0 140:0 141:0 142:0 143:0 144:0 145:0 146:0 147:0 148:0 149:0 150:0 151:0 152:0 153:0 154:0 155:0 156:1 157:0 158:0 159:0 160:0 161:0.391 162:0.52399999 163:0.50999999 164:0.42899999 165:0.51599997 166:0.58200002 167:0.54799998 168:0.46599999 169:0.52887535 170:0.45723963 171:0.34754097 172:0.60491496 173:0.56731582 174:0.28482652 175:0.66430467 176:0.50077039 177:0.565 178:0.722 179:0.537 180:0.43200001 181:0.42699999 182:0.55699998 183:0.44999999 184:0.48100001 185:2 186:2 187:2 188:2 189:2 190:2 191:2 192:2 #
-0.52022895768651666870141525578219 1:0 2:0 3:0 4:0 5:0 6:0 7:0 8:0 9:0 10:0 11:0 12:0 13:0 14:1 15:0 16:0 17:0 18:0 19:0 20:0 21:0 22:0 23:1 24:0 25:0 26:0 27:0 28:0 29:0 30:0 31:0 32:0 33:0 34:0 35:0 36:0 37:0 38:0 39:0 40:0 41:0 42:0 43:0 44:0 45:0 46:0 47:0 48:0 49:0 50:1 51:0 52:0 53:0 54:0 55:0 56:0 57:0 58:0 59:0 60:0 61:0 62:0 63:1 64:0 65:0 66:0 67:0 68:0 69:0 70:0 71:0 72:0 73:0 74:0 75:0 76:0 77:0 78:0 79:0 80:0 81:0 82:0 83:0 84:0 85:0 86:1 87:0 88:0 89:0 90:0 91:0 92:0 93:0 94:0 95:0 96:0 97:0 98:0 99:0 100:0 101:0 102:0 103:0 104:1 105:0 106:0 107:0 108:0 109:0 110:0 111:0 112:0 113:0 114:0 115:0 116:0 117:0 118:0 119:0 120:0 121:0 122:0 123:0 124:0 125:0 126:0 127:0 128:0 129:0 130:1 131:0 132:0 133:0 134:0 135:0 136:0 137:0 138:0 139:0 140:0 141:0 142:0 143:0 144:0 145:0 146:0 147:0 148:0 149:0 150:0 151:0 152:0 153:0 154:0 155:1 156:0 157:0 158:0 159:0 160:0 161:0.50300002 162:0.447 163:0.41100001 164:0.59299999 165:0.58099997 166:0.68000001 167:0.74900001 168:0.76499999 177:0.081 178:0.127 179:0.23899999 180:0.46700001 181:0.93199998 182:0.63 183:0.493 184:0.412 #
-3.3065824177567755270956695312634 1:0 2:0 3:0 4:0 5:0 6:0 7:0 8:0 9:0 10:1 11:0 12:0 13:0 14:0 15:0 16:0 17:0 18:0 19:0 20:0 21:0 22:0 23:1 24:0 25:0 26:0 27:0 28:0 29:0 30:0 31:0 32:0 33:0 34:0 35:0 36:0 37:0 38:0 39:0 40:0 41:0 42:0 43:1 44:0 45:0 46:0 47:0 48:0 49:0 50:0 51:0 52:0 53:0 54:0 55:0 56:0 57:0 58:0 59:0 60:0 61:0 62:0 63:1 64:0 65:0 66:0 67:0 68:0 69:0 70:0 71:0 72:0 73:0 74:0 75:0 76:0 77:0 78:0 79:0 80:0 81:0 82:0 83:0 84:0 85:0 86:0 87:0 88:0 89:0 90:0 91:1 92:0 93:0 94:0 95:0 96:0 97:0 98:0 99:0 100:0 101:0 102:0 103:1 104:0 105:0 106:0 107:0 108:0 109:0 110:0 111:0 112:0 113:0 114:0 115:0 116:0 117:0 118:0 119:0 120:0 121:0 122:0 123:0 124:0 125:0 126:1 127:0 128:0 129:0 130:0 131:0 132:0 133:0 134:0 135:0 136:0 137:0 138:0 139:0 140:0 141:0 142:0 143:0 144:0 145:0 146:0 147:0 148:0 149:0 150:0 151:0 152:0 153:0 154:0 155:0 156:0 157:1 158:0 159:0 160:0 161:0.078000002 162:0.079000004 163:0.090999998 164:0.096000001 165:0.083999999 166:0.079000004 167:0.169 168:0.148 169:0.50750905 170:0.18273471 171:0.51039696 172:0.65532452 173:0.42281219 174:0.27725267 175:0.70374572 176:0.7081967 177:0.182 178:0.43900001 179:0.57999998 180:0.81099999 181:0.86299998 182:0.81999999 183:0.86799997 184:0.61500001 185:2 186:2 187:2 188:2 189:2 190:2 191:2 192:2 #
10 1:0 2:0 3:1 4:0 5:0 6:0 7:0 8:0 9:0 10:0 11:0 12:0 13:0 14:0 15:0 16:0 17:0 18:0 19:0 20:0 21:0 22:0 23:0 24:1 25:0 26:0 27:0 28:0 29:0 30:0 31:0 32:0 33:0 34:0 35:0 36:0 37:0 38:0 39:0 40:0 41:0 42:0 43:0 44:0 45:0 46:0 47:0 48:0 49:0 50:0 51:0 52:0 53:0 54:0 55:0 56:0 57:0 58:1 59:0 60:0 61:0 62:0 63:1 64:0 65:0 66:0 67:0 68:0 69:0 70:0 71:0 72:0 73:0 74:0 75:0 76:0 77:0 78:0 79:0 80:0 81:0 82:0 83:0 84:0 85:0 86:0 87:0 88:0 89:0 90:0 91:0 92:1 93:0 94:0 95:0 96:0 97:0 98:0 99:0 100:0 101:0 102:0 103:0 104:0 105:0 106:0 107:0 108:0 109:1 110:0 111:0 112:0 113:0 114:0 115:0 116:0 117:0 118:0 119:0 120:0 121:0 122:0 123:0 124:0 125:0 126:0 127:0 128:0 129:0 130:0 131:0 132:0 133:0 134:0 135:0 136:0 137:0 138:1 139:0 140:0 141:0 142:0 143:0 144:0 145:0 146:0 147:0 148:0 149:1 150:0 151:0 152:0 153:0 154:0 155:0 156:0 157:0 158:0 159:0 160:0 161:0.45199999 162:0.42399999 163:0.37099999 164:0.264 165:0.39199999 166:0.43399999 167:0.53100002 168:0.542 177:0.81599998 178:0.78899997 179:0.66399997 180:0.70899999 181:0.442 182:0.32600001 183:0.42699999 184:0.63099998 #
4.8177438298339927413849181903061 1:0 2:0 3:0 4:0 5:0 6:0 7:0 8:1 9:0 10:0 11:0 12:0 13:0 14:0 15:0 16:0 17:0 18:0 19:0 20:0 21:0 22:0 23:0 24:0 25:0 26:0 27:0 28:0 29:0 30:0 31:0 32:0 33:0 34:0 35:0 36:1 37:0 38:0 39:0 40:0 41:0 42:0 43:0 44:0 45:0 46:0 47:0 48:0 49:0 50:0 51:0 52:0 53:0 54:0 55:0 56:1 57:0 58:0 59:0 60:0 61:0 62:0 63:1 64:0 65:0 66:0 67:0 68:0 69:0 70:0 71:0 72:0 73:0 74:0 75:0 76:0 77:0 78:0 79:0 80:0 81:0 82:0 83:0 84:0 85:0 86:0 87:0 88:0 89:0 90:0 91:0 92:0 93:0 94:0 95:1 96:0 97:0 98:0 99:0 100:0 101:0 102:0 103:1 104:0 105:0 106:0 107:0 108:0 109:0 110:0 111:0 112:0 113:0 114:0 115:0 116:0 117:0 118:0 119:0 120:0 121:0 122:0 123:0 124:0 125:0 126:0 127:0 128:0 129:0 130:1 131:0 132:0 133:0 134:0 135:0 136:0 137:0 138:0 139:0 140:0 141:0 142:0 143:0 144:0 145:0 146:0 147:0 148:0 149:0 150:1 151:0 152:0 153:0 154:0 155:0 156:0 157:0 158:0 159:0 160:0 161:0.056000002 162:0.056000002 163:0.081 164:0.033 165:0.013 166:0.0049999999 167:0.0020000001 168:0.001 169:0.17679559 170:0.58551615 171:0.56240368 172:0.14492753 173:0.6484375 174:0.012602394 175:0.031071983 176:0.0051786639 177:0.153 178:0.79000002 179:0.90600002 180:0.99000001 181:0.98799998 182:0.94499999 183:0.169 184:0.026000001 185:2 186:1 187:1 188:1 189:1 190:1 191:3 192:3 #
-10 1:0 2:0 3:0 4:0 5:0 6:0 7:1 8:0 9:0 10:0 11:0 12:0 13:0 14:0 15:0 16:0 17:0 18:0 19:0 20:0 21:0 22:0 23:0 24:0 25:0 26:0 27:0 28:0 29:0 30:0 31:0 32:0 33:0 34:0 35:0 36:0 37:0 38:1 39:0 40:0 41:0 42:0 43:0 44:0 45:0 46:0 47:0 48:0 49:0 50:1 51:0 52:0 53:0 54:0 55:0 56:0 57:0 58:0 59:0 60:0 61:0 62:0 63:1 64:0 65:0 66:0 67:0 68:0 69:0 70:0 71:0 72:0 73:0 74:0 75:0 76:0 77:0 78:0 79:0 80:0 81:0 82:0 83:0 84:0 85:0 86:0 87:0 88:0 89:0 90:0 91:0 92:0 93:0 94:0 95:0 96:1 97:0 98:0 99:0 100:0 101:0 102:0 103:0 104:0 105:0 106:0 107:0 108:0 109:0 110:0 111:0 112:0 113:0 114:0 115:0 116:1 117:0 118:0 119:0 120:0 121:0 122:0 123:0 124:0 125:0 126:0 127:0 128:0 129:0 130:0 131:0 132:0 133:0 134:0 135:1 136:0 137:0 138:0 139:0 140:0 141:0 142:0 143:0 144:0 145:0 146:0 147:0 148:0 149:0 150:0 151:0 152:0 153:1 154:0 155:0 156:0 157:0 158:0 159:0 160:0 161:0.064000003 162:0.043000001 163:0.055 164:0.052000001 165:0.046999998 166:0.050000001 167:0.050999999 168:0.045000002 169:0.40987656 170:0.59574467 171:0.63697565 172:0.63642091 173:1.009245 174:0.66255778 175:0.78515625 176:0.64713895 177:0.66600001 178:0.55000001 179:0.52100003 180:0.52200001 181:0.542 182:0.55800003 183:0.59500003 184:0.62300003 185:1 186:1 187:1 188:1 189:1 190:1 191:1 192:1 #
-4.86799161666678337212488258956 1:1 2:0 3:0 4:0 5:0 6:0 7:0 8:0 9:0 10:0 11:0 12:0 13:0 14:0 15:0 16:0 17:0 18:0 19:0 20:0 21:0 22:0 23:0 24:0 25:0 26:0 27:0 28:0 29:0 30:0 31:0 32:0 33:0 34:0 35:0 36:1 37:0 38:0 39:0 40:0 41:0 42:0 43:0 44:1 45:0 46:0 47:0 48:0 49:0 50:0 51:0 52:0 53:0 54:0 55:0 56:0 57:0 58:0 59:0 60:0 61:0 62:0 63:1 64:0 65:0 66:0 67:0 68:0 69:0 70:0 71:0 72:0 73:0 74:0 75:0 76:0 77:0 78:0 79:0 80:0 81:0 82:0 83:0 84:1 85:0 86:0 87:0 88:0 89:0 90:0 91:0 92:0 93:0 94:0 95:0 96:0 97:0 98:0 99:0 100:0 101:0 102:0 103:1 104:0 105:0 106:0 107:0 108:0 109:0 110:0 111:0 112:0 113:0 114:0 115:0 116:0 117:0 118:0 119:0 120:0 121:0 122:0 123:1 124:0 125:0 126:0 127:0 128:0 129:0 130:0 131:0 132:0 133:0 134:0 135:0 136:0 137:0 138:0 139:0 140:0 141:0 142:0 143:0 144:1 145:0 146:0 147:0 148:0 149:0 150:0 151:0 152:0 153:0 154:0 155:0 156:0 157:0 158:0 159:0 160:0 161:0.83200002 162:0.82300001 163:0.80000001 164:0.83499998 165:0.82300001 166:0.81900001 167:0.70599997 168:0.73299998 177:0.76899999 178:0.77399999 179:0.792 180:0.66399997 181:0.57999998 182:0.64899999 183:0.61500001 184:0.745 #
1.3490958442362241953560442198068 1:0 2:0 3:0 4:0 5:0 6:0 7:0 8:1 9:0 10:0 11:0 12:0 13:0 14:0 15:0 16:0 17:0 18:0 19:0 20:0 21:0 22:0 23:0 24:0 25:0 26:0 27:0 28:0 29:0 30:0 31:0 32:0 33:0 34:0 35:0 36:1 37:0 38:0 39:0 40:0 41:0 42:0 43:0 44:0 45:0 46:0 47:0 48:0 49:0 50:0 51:0 52:1 53:0 54:0 55:0 56:0 57:0 58:0 59:0 60:0 61:0 62:0 63:1 64:0 65:0 66:0 67:0 68:0 69:0 70:0 71:0 72:0 73:0 74:0 75:0 76:0 77:0 78:0 79:0 80:0 81:0 82:0 83:0 84:0 85:0 86:0 87:0 88:0 89:0 90:0 91:0 92:0 93:0 94:0 95:0 96:1 97:0 98:0 99:0 100:0 101:1 102:0 103:0 104:0 105:0 106:0 107:0 108:0 109:0 110:0 111:0 112:0 113:0 114:0 115:0 116:0 117:0 118:0 119:0 120:0 121:0 122:0 123:0 124:0 125:0 126:0 127:0 128:0 129:0 130:0 131:0 132:0 133:0 134:0 135:0 136:1 137:0 138:0 139:0 140:0 141:0 142:0 143:0 144:0 145:0 146:0 147:0 148:0 149:0 150:0 151:0 152:0 153:0 154:0 155:0 156:1 157:0 158:0 159:0 160:0 161:0.152 162:0.17900001 163:0.171 164:0.24699999 165:0.301 166:0.215 167:0.22400001 168:0.115 169:0.082872927 170:0.29275808 171:0.12688822 172:0.04410838 173:0.68567026 174:0.82980525 175:0.5392912 176:0.38520801 177:0.741 178:0.82499999 179:0.90100002 180:0.75599998 181:0.59500003 182:0.37599999 183:0.375 184:0.37200001 185:1 186:1 187:1 188:2 189:2 190:2 191:1 192:1 #
10 1:0 2:0 3:0 4:0 5:0 6:0 7:0 8:0 9:0 10:0 11:0 12:0 13:0 14:0 15:0 16:0 17:1 18:0 19:0 20:0 21:0 22:0 23:0 24:0 25:0 26:0 27:0 28:0 29:0 30:0 31:0 32:0 33:0 34:0 35:1 36:0 37:0 38:0 39:0 40:0 41:0 42:0 43:0 44:0 45:0 46:1 47:0 48:0 49:0 50:0 51:0 52:0 53:0 54:0 55:0 56:0 57:0 58:0 59:0 60:0 61:0 62:0 63:1 64:0 65:0 66:0 67:0 68:0 69:0 70:0 71:0 72:0 73:0 74:0 75:0 76:0 77:0 78:0 79:0 80:0 81:0 82:0 83:0 84:0 85:0 86:0 87:0 88:0 89:0 90:0 91:0 92:0 93:0 94:0 95:0 96:0 97:0 98:1 99:0 100:0 101:0 102:0 103:0 104:0 105:1 106:0 107:0 108:0 109:0 110:0 111:0 112:0 113:0 114:0 115:0 116:0 117:0 118:0 119:0 120:0 121:0 122:0 123:0 124:0 125:0 126:0 127:0 128:0 129:0 130:0 131:0 132:0 133:0 134:0 135:0 136:0 137:1 138:0 139:0 140:0 141:0 142:0 143:0 144:0 145:0 146:0 147:0 148:0 149:0 150:0 151:1 152:0 153:0 154:0 155:0 156:0 157:0 158:0 159:0 160:0 161:0.45199999 162:0.289 163:0.237 164:0.278 165:0.308 166:0.34299999 167:0.234 168:0.18099999 169:0.1704918 170:0.484375 171:0.4540295 172:0.43478259 173:0.43768996 174:0.35457811 175:0.66885245 176:0.94886923 177:0.91100001 178:0.88099998 179:0.81999999 180:0.80800003 181:0.69300002 182:0.83600003 183:0.79100001 184:0.88800001 185:1 186:1 187:1 188:1 189:1 190:1 191:1 192:1 #
0.71828187611204263873787567717955 1:0 2:0 3:0 4:0 5:0 6:0 7:0 8:1 9:0 10:0 11:0 12:0 13:0 14:0 15:0 16:0 17:0 18:0 19:0 20:0 21:0 22:0 23:0 24:0 25:0 26:0 27:0 28:0 29:0 30:0 31:0 32:1 33:0 34:0 35:0 36:0 37:0 38:0 39:0 40:0 41:0 42:0 43:0 44:0 45:0 46:0 47:0 48:0 49:0 50:0 51:0 52:0 53:1 54:0 55:0 56:0 57:0 58:0 59:0 60:0 61:0 62:0 63:1 64:0 65:0 66:0 67:0 68:0 69:0 70:0 71:0 72:0 73:0 74:0 75:0 76:0 77:0 78:0 79:0 80:0 81:0 82:0 83:0 84:0 85:0 86:0 87:0 88:0 89:0 90:0 91:0 92:0 93:0 94:0 95:0 96:1 97:0 98:0 99:0 100:0 101:1 102:0 103:0 104:0 105:0 106:0 107:0 108:0 109:0 110:0 111:0 112:0 113:0 114:0 115:0 116:0 117:0 118:0 119:0 120:0 121:0 122:0 123:0 124:0 125:0 126:0 127:0 128:0 129:0 130:0 131:0 132:0 133:0 134:1 135:0 136:0 137:0 138:0 139:0 140:0 141:0 142:0 143:0 144:0 145:0 146:0 147:0 148:0 149:0 150:0 151:0 152:0 153:1 154:0 155:0 156:0 157:0 158:0 159:0 160:0 161:0.0020000001 162:0.0020000001 163:0.0020000001 164:0.0040000002 165:0.003 166:0.003 167:0.003 168:0.003 169:0.52486187 170:0.41087613 171:0.50408721 172:0.61751735 173:0.16178736 174:0.093141407 175:0.66770184 176:0.061307903 177:0.368 178:0.94800001 179:0.77999997 180:0.65700001 181:0.53600001 182:0.052999999 183:0.0089999996 184:0.012 185:2 186:1 187:1 188:1 189:1 190:2 191:2 192:2 #
5.4748931202697805886714377265889 1:0 2:0 3:0 4:0 5:0 6:0 7:0 8:1 9:0 10:0 11:0 12:0 13:0 14:0 15:0 16:0 17:0 18:0 19:0 20:0 21:0 22:0 23:0 24:1 25:0 26:0 27:0 28:0 29:0 30:0 31:0 32:0 33:0 34:0 35:0 36:0 37:0 38:0 39:0 40:0 41:1 42:0 43:0 44:0 45:0 46:0 47:0 48:0 49:0 50:0 51:0 52:0 53:0 54:0 55:0 56:0 57:0 58:0 59:0 60:0 61:0 62:0 63:1 64:0 65:0 66:0 67:0 68:0 69:0 70:0 71:0 72:0 73:0 74:0 75:0 76:0 77:0 78:0 79:0 80:0 81:0 82:0 83:0 84:0 85:1 86:0 87:0 88:0 89:0 90:0 91:0 92:0 93:0 94:0 95:0 96:0 97:0 98:0 99:0 100:0 101:0 102:0 103:0 104:0 105:0 106:0 107:0 108:0 109:0 110:0 111:0 112:0 113:0 114:0 115:1 116:0 117:0 118:0 119:0 120:0 121:0 122:0 123:0 124:0 125:0 126:0 127:0 128:0 129:0 130:1 131:0 132:0 133:0 134:0 135:0 136:0 137:0 138:0 139:0 140:0 141:0 142:0 143:0 144:0 145:0 146:0 147:0 148:0 149:0 150:0 151:0 152:1 153:0 154:0 155:0 156:0 157:0 158:0 159:0 160:0 161:0.92199999 162:0.95200002 163:0.94999999 164:0.94700003 165:0.93199998 166:0.94700003 167:0.96700001 168:0.96100003 177:0.75800002 178:0.73799998 179:0.76200002 180:0.80199999 181:0.84500003 182:0.84200001 183:0.83099997 184:0.87900001 #
8.0534683189287790128219057805836 1:0 2:0 3:0 4:0 5:0 6:0 7:0 8:0 9:0 10:0 11:0 12:0 13:0 14:0 15:0 16:0 17:0 18:1 19:0 20:0 21:0 22:0 23:1 24:0 25:0 26:0 27:0 28:0 29:0 30:0 31:0 32:0 33:0 34:0 35:0 36:0 37:0 38:0 39:0 40:0 41:0 42:0 43:0 44:0 45:0 46:0 47:0 48:0 49:0 50:0 51:0 52:0 53:0 54:0 55:0 56:0 57:0 58:1 59:0 60:0 61:0 62:0 63:1 64:0 65:0 66:0 67:0 68:0 69:0 70:0 71:0 72:0 73:0 74:0 75:0 76:0 77:0 78:0 79:0 80:0 81:0 82:0 83:0 84:0 85:0 86:0 87:0 88:0 89:0 90:0 91:0 92:0 93:0 94:0 95:0 96:1 97:0 98:0 99:0 100:0 101:0 102:0 103:0 104:0 105:0 106:1 107:0 108:0 109:0 110:0 111:0 112:0 113:0 114:0 115:0 116:0 117:0 118:0 119:0 120:0 121:0 122:0 123:0 124:0 125:0 126:0 127:0 128:1 129:0 130:0 131:0 132:0 133:0 134:0 135:0 136:0 137:0 138:0 139:0 140:0 141:0 142:0 143:0 144:1 145:0 146:0 147:0 148:0 149:0 150:0 151:0 152:0 153:0 154:0 155:0 156:0 157:0 158:0 159:0 160:0 161:0.84500003 162:0.88099998 163:0.89499998 164:0.88 165:0.78899997 166:0.70099998 167:0.73699999 168:0.71899998 177:0.62599999 178:0.91100001 179:0.93800002 180:0.977 181:0.97500002 182:0.96399999 183:0.93800002 184:0.89099997 #
5.3320772807778844537551776738837 1:0 2:0 3:0 4:0 5:0 6:0 7:0 8:1 9:0 10:0 11:0 12:0 13:0 14:0 15:0 16:0 17:0 18:0 19:0 20:0 21:0 22:0 23:0 24:0 25:0 26:1 27:0 28:0 29:0 30:0 31:0 32:0 33:0 34:0 35:0 36:0 37:0 38:0 39:0 40:0 41:0 42:0 43:0 44:0 45:0 46:0 47:0 48:0 49:0 50:1 51:0 52:0 53:0 54:0 55:0 56:0 57:0 58:0 59:0 60:0 61:0 62:0 63:1 64:0 65:0 66:0 67:0 68:0 69:0 70:0 71:0 72:0 73:0 74:0 75:0 76:0 77:0 78:0 79:0 80:0 81:0 82:0 83:0 84:0 85:0 86:0 87:0 88:0 89:0 90:0 91:0 92:0 93:0 94:0 95:0 96:1 97:0 98:0 99:0 100:0 101:0 102:0 103:0 104:0 105:0 106:0 107:0 108:0 109:0 110:0 111:0 112:0 113:0 114:0 115:0 116:1 117:0 118:0 119:0 120:0 121:0 122:0 123:0 124:0 125:0 126:0 127:0 128:0 129:0 130:0 131:0 132:0 133:0 134:0 135:0 136:1 137:0 138:0 139:0 140:0 141:0 142:0 143:0 144:0 145:0 146:0 147:0 148:1 149:0 150:0 151:0 152:0 153:0 154:0 155:0 156:0 157:0 158:0 159:0 160:0 161:0.15700001 162:0.116 163:0.107 164:0.154 165:0.12899999 166:0.248 167:0.37799999 168:0.60600001 177:0.77899998 178:0.713 179:0.708 180:0.77399999 181:0.71600002 182:0.46700001 183:0.68400002 184:0.68800002 #
-8.7115393553712383578613298595883 1:0 2:0 3:0 4:0 5:0 6:0 7:0 8:0 9:0 10:1 11:0 12:0 13:0 14:0 15:0 16:0 17:0 18:0 19:0 20:0 21:0 22:0 23:0 24:0 25:0 26:0 27:0 28:0 29:0 30:0 31:0 32:0 33:0 34:0 35:0 36:1 37:0 38:0 39:0 40:0 41:1 42:0 43:0 44:0 45:0 46:0 47:0 48:0 49:0 50:0 51:0 52:0 53:0 54:0 55:0 56:0 57:0 58:0 59:0 60:0 61:0 62:0 63:1 64:0 65:0 66:0 67:0 68:0 69:0 70:0 71:0 72:0 73:0 74:0 75:0 76:0 77:0 78:0 79:0 80:0 81:0 82:0 83:0 84:0 85:0 86:0 87:0 88:0 89:0 90:0 91:0 92:0 93:0 94:0 95:0 96:0 97:0 98:1 99:0 100:0 101:0 102:0 103:0 104:0 105:1 106:0 107:0 108:0 109:0 110:0 111:0 112:0 113:0 114:0 115:0 116:0 117:0 118:0 119:0 120:0 121:1 122:0 123:0 124:0 125:0 126:0 127:0 128:0 129:0 130:0 131:0 132:0 133:0 134:0 135:0 136:0 137:0 138:0 139:0 140:0 141:0 142:0 143:0 144:0 145:0 146:0 147:0 148:0 149:0 150:0 151:0 152:0 153:0 154:0 155:1 156:0 157:0 158:0 159:0 160:0 161:0.001 162:0.001 163:0.001 164:0.001 165:0.001 166:0.001 167:0.001 168:0.001 177:0.62699997 178:0.70700002 179:0.048999999 180:0.043000001 181:0.012 182:0.0040000002 183:0.003 184:0.0060000001 #
-8.1300978871082989485330472234637 1:0 2:0 3:0 4:0 5:0 6:1 7:0 8:0 9:0 10:0 11:0 12:0 13:0 14:0 15:0 16:0 17:0 18:0 19:0 20:0 21:0 22:0 23:0 24:1 25:0 26:0 27:0 28:0 29:0 30:0 31:0 32:0 33:0 34:0 35:0 36:0 37:0 38:0 39:0 40:0 41:0 42:0 43:0 44:0 45:0 46:0 47:0 48:1 49:0 50:0 51:0 52:0 53:0 54:0 55:0 56:0 57:0 58:0 59:0 60:0 61:0 62:0 63:1 64:0 65:0 66:0 67:0 68:0 69:0 70:0 71:0 72:0 73:0 74:0 75:0 76:0 77:0 78:0 79:0 80:0 81:0 82:0 83:0 84:0 85:0 86:0 87:0 88:0 89:0 90:0 91:0 92:0 93:1 94:0 95:0 96:0 97:0 98:0 99:0 100:0 101:0 102:0 103:0 104:0 105:0 106:0 107:0 108:0 109:0 110:0 111:0 112:1 113:0 114:0 115:0 116:0 117:0 118:0 119:0 120:0 121:0 122:0 123:0 124:0 125:0 126:0 127:0 128:0 129:0 130:0 131:0 132:0 133:1 134:0 135:0 136:0 137:0 138:0 139:0 140:0 141:0 142:0 143:0 144:1 145:0 146:0 147:0 148:0 149:0 150:0 151:0 152:0 153:0 154:0 155:0 156:0 157:0 158:0 159:0 160:0 161:0.67900002 162:0.73000002 163:0.66900003 164:0.71499997 165:0.62800002 166:0.579 167:0.58099997 168:0.65700001 169:0.52213395 170:0.83243823 171:0.19889502 172:0.57971013 173:0.71525884 174:0.55589122 175:0.56539512 176:0.93447906 177:0.949 178:0.91000003 179:0.91600001 180:0.94099998 181:0.97299999 182:0.94599998 183:0.84799999 184:0.83700001 185:2 186:2 187:2 188:1 189:1 190:1 191:1 192:1 #
-6.6982791763359621484141825931147 1:0 2:0 3:0 4:0 5:0 6:0 7:0 8:0 9:1 10:0 11:0 12:0 13:0 14:0 15:0 16:0 17:0 18:0 19:0 20:0 21:0 22:0 23:0 24:1 25:0 26:0 27:0 28:0 29:0 30:0 31:0 32:0 33:0 34:0 35:0 36:0 37:0 38:0 39:0 40:0 41:0 42:0 43:0 44:0 45:0 46:0 47:0 48:0 49:0 50:0 51:0 52:0 53:0 54:0 55:1 56:0 57:0 58:0 59:0 60:0 61:0 62:0 63:1 64:0 65:0 66:0 67:0 68:0 69:0 70:0 71:0 72:0 73:0 74:0 75:0 76:0 77:0 78:0 79:0 80:0 81:1 82:0 83:0 84:0 85:0 86:0 87:0 88:0 89:0 90:0 91:0 92:0 93:0 94:0 95:0 96:0 97:0 98:0 99:0 100:0 101:0 102:0 103:0 104:0 105:0 106:0 107:0 108:0 109:0 110:0 111:0 112:0 113:0 114:0 115:1 116:0 117:0 118:0 119:0 120:0 121:0 122:0 123:0 124:0 125:0 126:0 127:0 128:0 129:0 130:0 131:0 132:0 133:0 134:0 135:0 136:0 137:1 138:0 139:0 140:0 141:0 142:0 143:0 144:0 145:0 146:0 147:0 148:0 149:0 150:1 151:0 152:0 153:0 154:0 155:0 156:0 157:0 158:0 159:0 160:0 161:0.86699998 162:0.72899997 163:0.43700001 164:0.249 165:0.177 166:0.124 167:0.035 168:0.015 177:0.704 178:0.84100002 179:0.93300003 180:0.95499998 181:0.93599999 182:0.86000001 183:0.17399999 184:0.043000001 #
-6.8523190644489915257508982904255 1:0 2:0 3:0 4:0 5:0 6:0 7:0 8:0 9:0 10:0 11:1 12:0 13:0 14:0 15:0 16:0 17:0 18:0 19:0 20:0 21:0 22:0 23:1 24:0 25:0 26:0 27:0 28:0 29:0 30:0 31:0 32:0 33:0 34:0 35:0 36:0 37:0 38:0 39:0 40:0 41:0 42:0 43:0 44:0 45:0 46:0 47:0 48:0 49:0 50:0 51:0 52:0 53:0 54:1 55:0 56:0 57:0 58:0 59:0 60:0 61:0 62:0 63:1 64:0 65:0 66:0 67:0 68:0 69:0 70:0 71:0 72:0 73:0 74:0 75:0 76:0 77:0 78:0 79:0 80:0 81:0 82:0 83:0 84:0 85:1 86:0 87:0 88:0 89:0 90:0 91:0 92:0 93:0 94:0 95:0 96:0 97:0 98:0 99:0 100:0 101:0 102:0 103:0 104:0 105:0 106:1 107:0 108:0 109:0 110:0 111:0 112:0 113:0 114:0 115:0 116:0 117:0 118:0 119:0 120:0 121:0 122:0 123:0 124:0 125:0 126:0 127:0 128:0 129:0 130:0 131:0 132:0 133:0 134:0 135:0 136:0 137:0 138:1 139:0 140:0 141:0 142:0 143:0 144:0 145:0 146:0 147:0 148:0 149:0 150:0 151:0 152:0 153:0 154:0 155:0 156:0 157:0 158:1 159:0 160:0 161:0.0020000001 162:0.0020000001 163:0.017000001 164:0.016000001 165:0.035 166:0.032000002 167:0.033 168:0.027000001 177:0.64099997 178:0.86400002 179:0.42699999 180:0.56300002 181:0.505 182:0.94 183:0.249 184:0.085000001 #
-2.7086953913505507074432898662053 1:0 2:0 3:0 4:0 5:0 6:0 7:0 8:0 9:0 10:0 11:0 12:0 13:1 14:0 15:0 16:0 17:0 18:0 19:0 20:0 21:0 22:0 23:0 24:0 25:0 26:1 27:0 28:0 29:0 30:0 31:0 32:0 33:0 34:0 35:0 36:0 37:0 38:0 39:0 40:0 41:0 42:0 43:0 44:0 45:0 46:0 47:0 48:0 49:0 50:0 51:0 52:0 53:0 54:0 55:0 56:1 57:0 58:0 59:0 60:0 61:0 62:0 63:1 64:0 65:0 66:0 67:0 68:0 69:0 70:0 71:0 72:0 73:0 74:0 75:0 76:0 77:0 78:0 79:0 80:0 81:0 82:0 83:0 84:0 85:0 86:0 87:0 88:0 89:0 90:0 91:0 92:0 93:0 94:0 95:0 96:0 97:0 98:0 99:1 100:0 101:0 102:0 103:0 104:0 105:0 106:0 107:0 108:0 109:0 110:0 111:0 112:0 113:0 114:0 115:0 116:0 117:1 118:0 119:0 120:0 121:0 122:0 123:0 124:0 125:0 126:0 127:0 128:0 129:0 130:0 131:0 132:0 133:1 134:0 135:0 136:0 137:0 138:0 139:0 140:0 141:0 142:0 143:0 144:0 145:0 146:0 147:0 148:0 149:0 150:0 151:0 152:1 153:0 154:0 155:0 156:0 157:0 158:0 159:0 160:0 161:0.163 162:0.23199999 163:0.199 164:0.18000001 165:0.255 166:0.115 167:0.057999998 168:0.037999999 177:0.85299999 178:0.889 179:0.926 180:0.92000002 181:0.94199997 182:0.94 183:0.037 184:0.028999999 #
1.9287566898858035102648500469513 1:0 2:0 3:0 4:0 5:0 6:0 7:0 8:0 9:0 10:1 11:0 12:0 13:0 14:0 15:0 16:0 17:0 18:0 19:0 20:0 21:0 22:0 23:0 24:0 25:0 26:1 27:0 28:0 29:0 30:0 31:0 32:0 33:0 34:0 35:0 36:0 37:0 38:0 39:0 40:0 41:0 42:0 43:0 44:0 45:0 46:0 47:0 48:0 49:0 50:0 51:0 52:0 53:1 54:0 55:0 56:0 57:0 58:0 59:0 60:0 61:0 62:0 63:1 64:0 65:0 66:0 67:0 68:0 69:0 70:0 71:0 72:0 73:0 74:0 75:0 76:0 77:0 78:0 79:0 80:0 81:0 82:0 83:0 84:1 85:0 86:0 87:0 88:0 89:0 90:0 91:0 92:0 93:0 94:0 95:0 96:0 97:0 98:0 99:0 100:0 101:0 102:0 103:0 104:0 105:0 106:0 107:0 108:0 109:0 110:0 111:0 112:0 113:0 114:0 115:0 116:1 117:0 118:0 119:0 120:0 121:0 122:0 123:0 124:0 125:0 126:0 127:0 128:0 129:1 130:0 131:0 132:0 133:0 134:0 135:0 136:0 137:0 138:0 139:0 140:0 141:0 142:0 143:0 144:0 145:0 146:0 147:0 148:0 149:0 150:0 151:0 152:0 153:0 154:1 155:0 156:0 157:0 158:0 159:0 160:0 161:0.66000003 162:0.74299997 163:0.89600003 164:0.88300002 165:0.82700002 166:0.796 167:0.852 168:0.829 169:0.09321595 170:0.54483539 171:0.55858308 172:0.88216764 173:0.85392052 174:0.78582436 175:0.72630644 176:0.615942 177:0.37799999 178:0.81400001 179:0.84899998 180:0.83399999 181:0.69300002 182:0.69099998 183:0.68000001 184:0.72600001 185:2 186:1 187:1 188:1 189:1 190:1 191:1 192:1 #
4.3824240677452515058121207403019 1:0 2:0 3:0 4:0 5:0 6:0 7:0 8:0 9:0 10:0 11:0 12:0 13:0 14:0 15:0 16:0 17:0 18:1 19:0 20:0 21:0 22:0 23:0 24:1 25:0 26:0 27:0 28:0 29:0 30:0 31:0 32:0 33:0 34:0 35:0 36:0 37:0 38:0 39:0 40:0 41:0 42:0 43:0 44:0 45:0 46:0 47:0 48:0 49:0 50:0 51:0 52:0 53:0 54:1 55:0 56:0 57:0 58:0 59:0 60:0 61:0 62:0 63:1 64:0 65:0 66:0 67:0 68:0 69:0 70:0 71:0 72:0 73:0 74:0 75:0 76:0 77:0 78:0 79:0 80:0 81:0 82:0 83:0 84:0 85:0 86:0 87:0 88:0 89:0 90:0 91:1 92:0 93:0 94:0 95:0 96:0 97:0 98:0 99:0 100:0 101:0 102:0 103:0 104:0 105:1 106:0 107:0 108:0 109:0 110:0 111:0 112:0 113:0 114:0 115:0 116:0 117:0 118:0 119:0 120:0 121:1 122:0 123:0 124:0 125:0 126:0 127:0 128:0 129:0 130:0 131:0 132:0 133:0 134:0 135:0 136:0 137:0 138:0 139:0 140:0 141:0 142:0 143:0 144:0 145:0 146:0 147:1 148:0 149:0 150:0 151:0 152:0 153:0 154:0 155:0 156:0 157:0 158:0 159:0 160:0 161:0.132 162:0.154 163:0.205 164:0.109 165:0.082999997 166:0.050999999 167:0.034000002 168:0.015 177:0.79799998 178:0.81199998 179:0.83099997 180:0.75 181:0.77399999 182:0.815 183:0.89600003 184:0.917 #
-5.8643146803544841105804152903147 1:0 2:0 3:0 4:0 5:0 6:0 7:0 8:0 9:0 10:0 11:0 12:1 13:0 14:0 15:0 16:0 17:0 18:0 19:0 20:0 21:0 22:0 23:0 24:0 25:0 26:0 27:0 28:0 29:0 30:0 31:0 32:0 33:0 34:1 35:0 36:0 37:0 38:0 39:0 40:0 41:0 42:0 43:0 44:0 45:0 46:1 47:0 48:0 49:0 50:0 51:0 52:0 53:0 54:0 55:0 56:0 57:0 58:0 59:0 60:0 61:0 62:0 63:1 64:0 65:0 66:0 67:0 68:0 69:0 70:0 71:0 72:0 73:0 74:0 75:0 76:0 77:0 78:0 79:0 80:0 81:0 82:0 83:0 84:0 85:0 86:0 87:0 88:0 89:0 90:0 91:0 92:0 93:1 94:0 95:0 96:0 97:0 98:0 99:0 100:0 101:0 102:0 103:0 104:0 105:0 106:0 107:0 108:0 109:1 110:0 111:0 112:0 113:0 114:0 115:0 116:0 117:0 118:0 119:0 120:0 121:0 122:0 123:0 124:0 125:0 126:0 127:0 128:0 129:1 130:0 131:0 132:0 133:0 134:0 135:0 136:0 137:0 138:0 139:0 140:0 141:0 142:0 143:0 144:0 145:0 146:0 147:0 148:0 149:0 150:0 151:1 152:0 153:0 154:0 155:0 156:0 157:0 158:0 159:0 160:0 161:0.40700001 162:0.403 163:0.32600001 164:0.405 165:0.44 166:0.403 167:0.56699997 168:0.528 177:0.37 178:0.74699998 179:0.77899998 180:0.73100001 181:0.713 182:0.66399997 183:0.77200001 184:0.847 #
4.8563355755739152641581313218921 1:0 2:0 3:0 4:0 5:0 6:0 7:0 8:0 9:0 10:0 11:0 12:0 13:0 14:0 15:0 16:0 17:0 18:1 19:0 20:0 21:0 22:0 23:1 24:0 25:0 26:0 27:0 28:0 29:0 30:0 31:0 32:0 33:0 34:0 35:0 36:0 37:0 38:0 39:0 40:0 41:0 42:0 43:0 44:0 45:0 46:0 47:0 48:0 49:0 50:0 51:0 52:0 53:1 54:0 55:0 56:0 57:0 58:0 59:0 60:0 61:0 62:0 63:1 64:0 65:0 66:0 67:0 68:0 69:0 70:0 71:0 72:0 73:0 74:0 75:0 76:0 77:0 78:0 79:0 80:0 81:0 82:0 83:0 84:0 85:0 86:0 87:0 88:0 89:0 90:0 91:0 92:0 93:0 94:0 95:0 96:0 97:0 98:0 99:0 100:1 101:0 102:0 103:0 104:0 105:0 106:0 107:0 108:0 109:0 110:0 111:0 112:0 113:0 114:0 115:0 116:0 117:0 118:0 119:1 120:0 121:0 122:0 123:0 124:1 125:0 126:0 127:0 128:0 129:0 130:0 131:0 132:0 133:0 134:0 135:0 136:0 137:0 138:0 139:0 140:0 141:0 142:0 143:0 144:0 145:0 146:0 147:0 148:0 149:1 150:0 151:0 152:0 153:0 154:0 155:0 156:0 157:0 158:0 159:0 160:0 161:0.027000001 162:0.032000002 163:0.014 164:0.0080000004 165:0.012 166:0.0049999999 167:0.0070000002 168:0.0089999996 169:0.32218844 170:0.59231251 171:0.51089919 172:0.49149337 173:0.88260138 174:0.55951935 175:0.37056929 176:0.15943313 177:0.75599998 178:0.898 179:0.197 180:0.102 181:0.037999999 182:0.030999999 183:0.023 184:0.037999999 185:1 186:1 187:1 188:1 189:1 190:1 191:1 192:1 #
2.0679950221088816419978684280068 1:0 2:0 3:0 4:0 5:0 6:0 7:0 8:1 9:0 10:0 11:0 12:0 13:0 14:0 15:0 16:0 17:0 18:0 19:0 20:0 21:0 22:0 23:0 24:0 25:0 26:0 27:0 28:0 29:0 30:0 31:0 32:0 33:0 34:1 35:0 36:0 37:0 38:0 39:0 40:0 41:1 42:0 43:0 44:0 45:0 46:0 47:0 48:0 49:0 50:0 51:0 52:0 53:0 54:0 55:0 56:0 57:0 58:0 59:0 60:0 61:0 62:0 63:1 64:0 65:0 66:0 67:0 68:0 69:0 70:0 71:0 72:0 73:0 74:0 75:0 76:0 77:0 78:0 79:0 80:0 81:0 82:0 83:0 84:0 85:0 86:0 87:0 88:0 89:0 90:0 91:0 92:0 93:0 94:0 95:0 96:1 97:0 98:0 99:0 100:0 101:0 102:0 103:0 104:0 105:0 106:1 107:0 108:0 109:0 110:0 111:0 112:0 113:0 114:0 115:0 116:0 117:0 118:0 119:0 120:0 121:0 122:0 123:0 124:0 125:0 126:0 127:0 128:0 129:0 130:0 131:0 132:0 133:1 134:0 135:0 136:0 137:0 138:0 139:0 140:0 141:0 142:0 143:0 144:0 145:0 146:0 147:0 148:1 149:0 150:0 151:0 152:0 153:0 154:0 155:0 156:0 157:0 158:0 159:0 160:0 161:0.112 162:0.068000004 163:0.07 164:0.093999997 165:0.057 166:0.067000002 167:0.068999998 168:0.057999998 169:0.76243097 170:1.0093168 171:0.60965282 172:1.0270952 173:0.81664097 174:0.61293983 175:0.83106267 176:0.81767958 177:0.242 178:0.29699999 179:0.47999999 180:0.76800001 181:0.87699997 182:0.90600002 183:0.83899999 184:0.74900001 185:1 186:1 187:1 188:1 189:1 190:1 191:1 192:1 #
-0.30771114411555444689838623162359 1:0 2:0 3:0 4:0 5:0 6:0 7:0 8:0 9:0 10:0 11:0 12:1 13:0 14:0 15:0 16:0 17:0 18:0 19:0 20:0 21:0 22:0 23:0 24:0 25:0 26:0 27:0 28:0 29:1 30:0 31:0 32:0 33:0 34:0 35:0 36:0 37:0 38:0 39:0 40:0 41:0 42:0 43:0 44:0 45:0 46:0 47:0 48:0 49:0 50:0 51:1 52:0 53:0 54:0 55:0 56:0 57:0 58:0 59:0 60:0 61:0 62:0 63:1 64:0 65:0 66:0 67:0 68:0 69:0 70:0 71:0 72:0 73:0 74:0 75:0 76:0 77:0 78:0 79:0 80:0 81:0 82:0 83:0 84:0 85:0 86:0 87:0 88:0 89:0 90:0 91:0 92:0 93:0 94:0 95:0 96:1 97:0 98:0 99:0 100:0 101:0 102:0 103:0 104:0 105:0 106:0 107:0 108:0 109:0 110:0 111:0 112:0 113:0 114:0 115:0 116:0 117:1 118:0 119:0 120:0 121:0 122:0 123:0 124:1 125:0 126:0 127:0 128:0 129:0 130:0 131:0 132:0 133:0 134:0 135:0 136:0 137:0 138:0 139:0 140:0 141:0 142:0 143:0 144:0 145:0 146:0 147:0 148:0 149:0 150:0 151:0 152:0 153:1 154:0 155:0 156:0 157:0 158:0 159:0 160:0 161:0.0060000001 162:0.014 163:0.023 164:0.016000001 165:0.014 166:0.033 167:0.068000004 168:0.074000001 169:0.018126888 170:0.29229406 171:0.0049164207 172:0.32136106 173:0.61633283 174:0.13114753 175:0.48335123 176:0.66757494 177:0.28299999 178:0.551 179:0.65799999 180:0.66799998 181:0.83499998 182:0.90899998 183:0.95200002 184:0.95099998 185:3 186:1 187:2 188:2 189:2 190:2 191:1 192:1 #
0.64595425208509604786399904696736 1:0 2:0 3:0 4:0 5:0 6:0 7:0 8:0 9:0 10:0 11:0 12:0 13:0 14:0 15:0 16:0 17:0 18:1 19:0 20:0 21:0 22:0 23:0 24:0 25:0 26:0 27:0 28:0 29:0 30:0 31:0 32:0 33:0 34:0 35:0 36:0 37:1 38:0 39:0 40:0 41:0 42:0 43:0 44:0 45:0 46:1 47:0 48:0 49:0 50:0 51:0 52:0 53:0 54:0 55:0 56:0 57:0 58:0 59:0 60:0 61:0 62:0 63:1 64:0 65:0 66:0 67:0 68:0 69:0 70:0 71:0 72:0 73:0 74:0 75:0 76:0 77:0 78:0 79:0 80:0 81:1 82:0 83:0 84:0 85:0 86:0 87:0 88:0 89:0 90:0 91:0 92:0 93:0 94:0 95:0 96:0 97:0 98:0 99:0 100:0 101:0 102:0 103:0 104:0 105:0 106:1 107:0 108:0 109:0 110:0 111:0 112:0 113:0 114:0 115:0 116:0 117:0 118:0 119:0 120:0 121:0 122:0 123:0 124:0 125:0 126:0 127:0 128:0 129:0 130:0 131:0 132:0 133:0 134:0 135:0 136:0 137:0 138:1 139:0 140:0 141:0 142:0 143:0 144:0 145:0 146:0 147:0 148:0 149:0 150:0 151:0 152:0 153:1 154:0 155:0 156:0 157:0 158:0 159:0 160:0 161:0.163 162:0.16599999 163:0.152 164:0.221 165:0.23 166:0.412 167:0.43200001 168:0.52200001 169:0.65045595 170:0.80655736 171:0.56753689 172:0.86326402 173:0.65198982 174:0.55618614 175:0.66261399 176:0.71525884 177:0.74900001 178:0.77600002 179:0.83099997 180:0.81400001 181:0.89700001 182:0.95999998 183:0.96899998 184:0.912 185:1 186:1 187:1 188:1 189:1 190:1 191:1 192:1 #
4.7661780918360348024975792213809 1:0 2:0 3:0 4:0 5:0 6:0 7:0 8:0 9:0 10:0 11:0 12:0 13:0 14:0 15:0 16:0 17:0 18:1 19:0 20:0 21:0 22:0 23:0 24:0 25:0 26:0 27:0 28:0 29:0 30:0 31:0 32:0 33:0 34:0 35:0 36:0 37:1 38:0 39:0 40:0 41:0 42:0 43:0 44:0 45:0 46:0 47:0 48:0 49:0 50:0 51:0 52:0 53:1 54:0 55:0 56:0 57:0 58:0 59:0 60:0 61:0 62:0 63:1 64:0 65:0 66:0 67:0 68:0 69:0 70:0 71:0 72:0 73:0 74:0 75:0 76:0 77:0 78:0 79:0 80:0 81:0 82:0 83:0 84:0 85:0 86:0 87:0 88:0 89:0 90:0 91:0 92:0 93:0 94:1 95:0 96:0 97:0 98:0 99:0 100:0 101:0 102:0 103:0 104:0 105:0 106:0 107:0 108:0 109:0 110:0 111:0 112:0 113:0 114:0 115:0 116:1 117:0 118:0 119:0 120:0 121:0 122:0 123:0 124:0 125:0 126:0 127:0 128:0 129:0 130:0 131:1 132:0 133:0 134:0 135:0 136:0 137:0 138:0 139:0 140:0 141:0 142:0 143:0 144:0 145:0 146:0 147:0 148:0 149:0 150:0 151:0 152:0 153:0 154:0 155:0 156:0 157:0 158:1 159:0 160:0 161:0 162:0.001 163:0.001 164:0.003 165:0.0040000002 166:0.0040000002 167:0.0049999999 168:0.011 177:0.96899998 178:0.88800001 179:0.912 180:0.97299999 181:0.033 182:0.013 183:0.014 184:0.02 #
1.6785067411193104192079772474244 1:0 2:0 3:0 4:0 5:0 6:0 7:0 8:0 9:0 10:0 11:0 12:0 13:0 14:0 15:0 16:0 17:0 18:1 19:0 20:0 21:0 22:0 23:0 24:0 25:0 26:0 27:0 28:0 29:0 30:0 31:0 32:0 33:0 34:0 35:0 36:1 37:0 38:0 39:0 40:0 41:0 42:0 43:0 44:0 45:0 46:0 47:0 48:0 49:0 50:0 51:0 52:0 53:0 54:0 55:0 56:0 57:0 58:0 59:1 60:0 61:0 62:0 63:1 64:0 65:0 66:0 67:0 68:0 69:0 70:0 71:0 72:0 73:0 74:0 75:0 76:0 77:0 78:0 79:0 80:0 81:0 82:0 83:0 84:0 85:0 86:0 87:0 88:0 89:0 90:0 91:0 92:0 93:0 94:0 95:0 96:1 97:0 98:0 99:0 100:0 101:0 102:0 103:0 104:0 105:0 106:1 107:0 108:0 109:0 110:0 111:0 112:0 113:0 114:0 115:0 116:0 117:0 118:0 119:0 120:0 121:0 122:0 123:0 124:0 125:0 126:1 127:0 128:0 129:0 130:0 131:0 132:0 133:0 134:0 135:0 136:0 137:0 138:0 139:0 140:0 141:0 142:0 143:0 144:0 145:0 146:0 147:0 148:0 149:0 150:0 151:0 152:0 153:0 154:0 155:0 156:1 157:0 158:0 159:0 160:0 161:0.45100001 162:0.433 163:0.43000001 164:0.39300001 165:0.359 166:0.46399999 167:0.43000001 168:0.38699999 177:0.87300003 178:0.89999998 179:0.889 180:0.92900002 181:0.92699999 182:0.89999998 183:0.81 184:0.81 #
